digraph Tree {
node [shape=box, style="filled, rounded", color="black", fontname=helvetica] ;
edge [fontname=helvetica] ;
0 [label="FrequentDomainNameMismatch <= 0.7\ngini = 0.5\nsamples = 5081\nvalue = [4038, 3962]\nclass = C", fillcolor="#fffdfb"] ;
1 [label="ExtMetaScriptLinkRT <= 0.43\ngini = 0.47\nsamples = 4025\nvalue = [3942, 2368]\nclass = C", fillcolor="#f5cdb0"] ;
0 -> 1 [labeldistance=2.5, labelangle=45, headlabel="True"] ;
2 [label="PathLevel <= 1.75\ngini = 0.28\nsamples = 2362\nvalue = [3072, 615]\nclass = C", fillcolor="#ea9a61"] ;
1 -> 2 ;
3 [label="PctExtNullSelfRedirectHyperlinksRT <= -0.92\ngini = 0.25\nsamples = 2274\nvalue = [3021, 527]\nclass = C", fillcolor="#ea975c"] ;
2 -> 3 ;
4 [label="SubmitInfoToEmail <= 1.09\ngini = 0.16\nsamples = 188\nvalue = [24, 259]\nclass = L", fillcolor="#4ba6e7"] ;
3 -> 4 ;
5 [label="PathLength <= 0.99\ngini = 0.1\nsamples = 175\nvalue = [14, 249]\nclass = L", fillcolor="#44a3e6"] ;
4 -> 5 ;
6 [label="InsecureForms <= -0.96\ngini = 0.06\nsamples = 171\nvalue = [8, 246]\nclass = L", fillcolor="#3fa0e6"] ;
5 -> 6 ;
7 [label="ExtMetaScriptLinkRT <= -0.89\ngini = 0.5\nsamples = 2\nvalue = [1, 1]\nclass = C", fillcolor="#ffffff"] ;
6 -> 7 ;
8 [label="gini = 0.0\nsamples = 1\nvalue = [0, 1]\nclass = L", fillcolor="#399de5"] ;
7 -> 8 ;
9 [label="gini = 0.0\nsamples = 1\nvalue = [1, 0]\nclass = C", fillcolor="#e58139"] ;
7 -> 9 ;
10 [label="AbnormalExtFormActionR <= -2.48\ngini = 0.05\nsamples = 169\nvalue = [7, 245]\nclass = L", fillcolor="#3fa0e6"] ;
6 -> 10 ;
11 [label="SubdomainLevel <= -0.12\ngini = 0.44\nsamples = 2\nvalue = [2, 1]\nclass = C", fillcolor="#f2c09c"] ;
10 -> 11 ;
12 [label="gini = 0.0\nsamples = 1\nvalue = [2, 0]\nclass = C", fillcolor="#e58139"] ;
11 -> 12 ;
13 [label="gini = 0.0\nsamples = 1\nvalue = [0, 1]\nclass = L", fillcolor="#399de5"] ;
11 -> 13 ;
14 [label="RelativeFormAction <= 0.58\ngini = 0.04\nsamples = 167\nvalue = [5, 244]\nclass = L", fillcolor="#3d9fe6"] ;
10 -> 14 ;
15 [label="NumUnderscore <= 0.16\ngini = 0.03\nsamples = 145\nvalue = [3, 215]\nclass = L", fillcolor="#3c9ee5"] ;
14 -> 15 ;
16 [label="ExtFormAction <= 1.3\ngini = 0.02\nsamples = 141\nvalue = [2, 209]\nclass = L", fillcolor="#3b9ee5"] ;
15 -> 16 ;
17 [label="PctExtResourceUrls <= 0.81\ngini = 0.01\nsamples = 137\nvalue = [1, 205]\nclass = L", fillcolor="#3a9de5"] ;
16 -> 17 ;
18 [label="gini = 0.0\nsamples = 122\nvalue = [0, 180]\nclass = L", fillcolor="#399de5"] ;
17 -> 18 ;
19 [label="PathLevel <= -0.96\ngini = 0.07\nsamples = 15\nvalue = [1, 25]\nclass = L", fillcolor="#41a1e6"] ;
17 -> 19 ;
20 [label="SubdomainLevelRT <= -1.86\ngini = 0.38\nsamples = 2\nvalue = [1, 3]\nclass = L", fillcolor="#7bbeee"] ;
19 -> 20 ;
21 [label="gini = 0.0\nsamples = 1\nvalue = [1, 0]\nclass = C", fillcolor="#e58139"] ;
20 -> 21 ;
22 [label="gini = 0.0\nsamples = 1\nvalue = [0, 3]\nclass = L", fillcolor="#399de5"] ;
20 -> 22 ;
23 [label="gini = 0.0\nsamples = 13\nvalue = [0, 22]\nclass = L", fillcolor="#399de5"] ;
19 -> 23 ;
24 [label="NumDots <= -0.71\ngini = 0.32\nsamples = 4\nvalue = [1, 4]\nclass = L", fillcolor="#6ab6ec"] ;
16 -> 24 ;
25 [label="gini = 0.0\nsamples = 1\nvalue = [1, 0]\nclass = C", fillcolor="#e58139"] ;
24 -> 25 ;
26 [label="gini = 0.0\nsamples = 3\nvalue = [0, 4]\nclass = L", fillcolor="#399de5"] ;
24 -> 26 ;
27 [label="HostnameLength <= -0.53\ngini = 0.24\nsamples = 4\nvalue = [1, 6]\nclass = L", fillcolor="#5aade9"] ;
15 -> 27 ;
28 [label="gini = 0.0\nsamples = 1\nvalue = [1, 0]\nclass = C", fillcolor="#e58139"] ;
27 -> 28 ;
29 [label="gini = 0.0\nsamples = 3\nvalue = [0, 6]\nclass = L", fillcolor="#399de5"] ;
27 -> 29 ;
30 [label="PctNullSelfRedirectHyperlinks <= 2.3\ngini = 0.12\nsamples = 22\nvalue = [2, 29]\nclass = L", fillcolor="#47a4e7"] ;
14 -> 30 ;
31 [label="PctExtResourceUrlsRT <= -0.4\ngini = 0.26\nsamples = 9\nvalue = [2, 11]\nclass = L", fillcolor="#5dafea"] ;
30 -> 31 ;
32 [label="HostnameLength <= 0.14\ngini = 0.5\nsamples = 2\nvalue = [1, 1]\nclass = C", fillcolor="#ffffff"] ;
31 -> 32 ;
33 [label="gini = 0.0\nsamples = 1\nvalue = [0, 1]\nclass = L", fillcolor="#399de5"] ;
32 -> 33 ;
34 [label="gini = 0.0\nsamples = 1\nvalue = [1, 0]\nclass = C", fillcolor="#e58139"] ;
32 -> 34 ;
35 [label="DomainInPaths <= 0.14\ngini = 0.17\nsamples = 7\nvalue = [1, 10]\nclass = L", fillcolor="#4da7e8"] ;
31 -> 35 ;
36 [label="NumUnderscore <= 0.16\ngini = 0.32\nsamples = 3\nvalue = [1, 4]\nclass = L", fillcolor="#6ab6ec"] ;
35 -> 36 ;
37 [label="IframeOrFrame <= 0.34\ngini = 0.38\nsamples = 2\nvalue = [1, 3]\nclass = L", fillcolor="#7bbeee"] ;
36 -> 37 ;
38 [label="gini = 0.0\nsamples = 1\nvalue = [1, 0]\nclass = C", fillcolor="#e58139"] ;
37 -> 38 ;
39 [label="gini = 0.0\nsamples = 1\nvalue = [0, 3]\nclass = L", fillcolor="#399de5"] ;
37 -> 39 ;
40 [label="gini = 0.0\nsamples = 1\nvalue = [0, 1]\nclass = L", fillcolor="#399de5"] ;
36 -> 40 ;
41 [label="gini = 0.0\nsamples = 4\nvalue = [0, 6]\nclass = L", fillcolor="#399de5"] ;
35 -> 41 ;
42 [label="gini = 0.0\nsamples = 13\nvalue = [0, 18]\nclass = L", fillcolor="#399de5"] ;
30 -> 42 ;
43 [label="PctExtHyperlinks <= 1.79\ngini = 0.44\nsamples = 4\nvalue = [6, 3]\nclass = C", fillcolor="#f2c09c"] ;
5 -> 43 ;
44 [label="PctExtHyperlinks <= 1.49\ngini = 0.48\nsamples = 3\nvalue = [2, 3]\nclass = L", fillcolor="#bddef6"] ;
43 -> 44 ;
45 [label="gini = 0.0\nsamples = 1\nvalue = [2, 0]\nclass = C", fillcolor="#e58139"] ;
44 -> 45 ;
46 [label="gini = 0.0\nsamples = 2\nvalue = [0, 3]\nclass = L", fillcolor="#399de5"] ;
44 -> 46 ;
47 [label="gini = 0.0\nsamples = 1\nvalue = [4, 0]\nclass = C", fillcolor="#e58139"] ;
43 -> 47 ;
48 [label="RelativeFormAction <= 0.58\ngini = 0.5\nsamples = 13\nvalue = [10, 10]\nclass = C", fillcolor="#ffffff"] ;
4 -> 48 ;
49 [label="PathLevel <= -0.42\ngini = 0.44\nsamples = 10\nvalue = [5, 10]\nclass = L", fillcolor="#9ccef2"] ;
48 -> 49 ;
50 [label="gini = 0.0\nsamples = 5\nvalue = [0, 8]\nclass = L", fillcolor="#399de5"] ;
49 -> 50 ;
51 [label="NumNumericChars <= -0.13\ngini = 0.41\nsamples = 5\nvalue = [5, 2]\nclass = C", fillcolor="#efb388"] ;
49 -> 51 ;
52 [label="HostnameLength <= 0.69\ngini = 0.44\nsamples = 3\nvalue = [1, 2]\nclass = L", fillcolor="#9ccef2"] ;
51 -> 52 ;
53 [label="gini = 0.0\nsamples = 2\nvalue = [0, 2]\nclass = L", fillcolor="#399de5"] ;
52 -> 53 ;
54 [label="gini = 0.0\nsamples = 1\nvalue = [1, 0]\nclass = C", fillcolor="#e58139"] ;
52 -> 54 ;
55 [label="gini = 0.0\nsamples = 2\nvalue = [4, 0]\nclass = C", fillcolor="#e58139"] ;
51 -> 55 ;
56 [label="gini = 0.0\nsamples = 3\nvalue = [5, 0]\nclass = C", fillcolor="#e58139"] ;
48 -> 56 ;
57 [label="PctNullSelfRedirectHyperlinks <= -0.43\ngini = 0.15\nsamples = 2086\nvalue = [2997, 268]\nclass = C", fillcolor="#e78c4b"] ;
3 -> 57 ;
58 [label="NumNumericChars <= 1.67\ngini = 0.26\nsamples = 985\nvalue = [1289, 238]\nclass = C", fillcolor="#ea985e"] ;
57 -> 58 ;
59 [label="PctExtResourceUrls <= -0.15\ngini = 0.22\nsamples = 928\nvalue = [1257, 185]\nclass = C", fillcolor="#e99456"] ;
58 -> 59 ;
60 [label="ExtMetaScriptLinkRT <= -0.89\ngini = 0.27\nsamples = 455\nvalue = [600, 115]\nclass = C", fillcolor="#ea995f"] ;
59 -> 60 ;
61 [label="PctExtHyperlinks <= -0.69\ngini = 0.44\nsamples = 43\nvalue = [21, 44]\nclass = L", fillcolor="#98ccf1"] ;
60 -> 61 ;
62 [label="PathLength <= 0.41\ngini = 0.18\nsamples = 34\nvalue = [5, 44]\nclass = L", fillcolor="#50a8e8"] ;
61 -> 62 ;
63 [label="UrlLength <= -1.36\ngini = 0.05\nsamples = 29\nvalue = [1, 41]\nclass = L", fillcolor="#3e9fe6"] ;
62 -> 63 ;
64 [label="gini = 0.0\nsamples = 1\nvalue = [1, 0]\nclass = C", fillcolor="#e58139"] ;
63 -> 64 ;
65 [label="gini = 0.0\nsamples = 28\nvalue = [0, 41]\nclass = L", fillcolor="#399de5"] ;
63 -> 65 ;
66 [label="PathLength <= 0.5\ngini = 0.49\nsamples = 5\nvalue = [4, 3]\nclass = C", fillcolor="#f8e0ce"] ;
62 -> 66 ;
67 [label="gini = 0.0\nsamples = 1\nvalue = [3, 0]\nclass = C", fillcolor="#e58139"] ;
66 -> 67 ;
68 [label="NumDash <= -0.1\ngini = 0.38\nsamples = 4\nvalue = [1, 3]\nclass = L", fillcolor="#7bbeee"] ;
66 -> 68 ;
69 [label="gini = 0.0\nsamples = 3\nvalue = [0, 3]\nclass = L", fillcolor="#399de5"] ;
68 -> 69 ;
70 [label="gini = 0.0\nsamples = 1\nvalue = [1, 0]\nclass = C", fillcolor="#e58139"] ;
68 -> 70 ;
71 [label="gini = 0.0\nsamples = 9\nvalue = [16, 0]\nclass = C", fillcolor="#e58139"] ;
61 -> 71 ;
72 [label="PathLevel <= -0.96\ngini = 0.19\nsamples = 412\nvalue = [579, 71]\nclass = C", fillcolor="#e89051"] ;
60 -> 72 ;
73 [label="SubdomainLevel <= -0.12\ngini = 0.02\nsamples = 117\nvalue = [182, 2]\nclass = C", fillcolor="#e5823b"] ;
72 -> 73 ;
74 [label="gini = 0.0\nsamples = 44\nvalue = [70, 0]\nclass = C", fillcolor="#e58139"] ;
73 -> 74 ;
75 [label="NumAmpersand <= 0.21\ngini = 0.03\nsamples = 73\nvalue = [112, 2]\nclass = C", fillcolor="#e5833d"] ;
73 -> 75 ;
76 [label="HostnameLength <= -0.16\ngini = 0.06\nsamples = 42\nvalue = [60, 2]\nclass = C", fillcolor="#e68540"] ;
75 -> 76 ;
77 [label="RandomString <= -0.04\ngini = 0.12\nsamples = 19\nvalue = [30, 2]\nclass = C", fillcolor="#e78946"] ;
76 -> 77 ;
78 [label="PctExtResourceUrls <= -0.82\ngini = 0.14\nsamples = 16\nvalue = [24, 2]\nclass = C", fillcolor="#e78c49"] ;
77 -> 78 ;
79 [label="gini = 0.0\nsamples = 1\nvalue = [0, 2]\nclass = L", fillcolor="#399de5"] ;
78 -> 79 ;
80 [label="gini = 0.0\nsamples = 15\nvalue = [24, 0]\nclass = C", fillcolor="#e58139"] ;
78 -> 80 ;
81 [label="gini = 0.0\nsamples = 3\nvalue = [6, 0]\nclass = C", fillcolor="#e58139"] ;
77 -> 81 ;
82 [label="gini = 0.0\nsamples = 23\nvalue = [30, 0]\nclass = C", fillcolor="#e58139"] ;
76 -> 82 ;
83 [label="gini = 0.0\nsamples = 31\nvalue = [52, 0]\nclass = C", fillcolor="#e58139"] ;
75 -> 83 ;
84 [label="NumUnderscore <= 4.62\ngini = 0.25\nsamples = 295\nvalue = [397, 69]\nclass = C", fillcolor="#ea975b"] ;
72 -> 84 ;
85 [label="NumDots <= 0.81\ngini = 0.24\nsamples = 291\nvalue = [396, 65]\nclass = C", fillcolor="#e9965a"] ;
84 -> 85 ;
86 [label="NoHttps <= -4.83\ngini = 0.2\nsamples = 265\nvalue = [375, 47]\nclass = C", fillcolor="#e89152"] ;
85 -> 86 ;
87 [label="gini = 0.0\nsamples = 1\nvalue = [0, 2]\nclass = L", fillcolor="#399de5"] ;
86 -> 87 ;
88 [label="NumQueryComponents <= 0.03\ngini = 0.19\nsamples = 264\nvalue = [375, 45]\nclass = C", fillcolor="#e89051"] ;
86 -> 88 ;
89 [label="ExtFavicon <= 0.91\ngini = 0.28\nsamples = 150\nvalue = [199, 40]\nclass = C", fillcolor="#ea9a61"] ;
88 -> 89 ;
90 [label="SubmitInfoToEmail <= 1.09\ngini = 0.14\nsamples = 136\nvalue = [199, 16]\nclass = C", fillcolor="#e78b49"] ;
89 -> 90 ;
91 [label="NumDash <= 0.23\ngini = 0.18\nsamples = 99\nvalue = [141, 16]\nclass = C", fillcolor="#e88f4f"] ;
90 -> 91 ;
92 [label="PctExtHyperlinks <= -0.7\ngini = 0.28\nsamples = 60\nvalue = [78, 16]\nclass = C", fillcolor="#ea9b62"] ;
91 -> 92 ;
93 [label="RandomString <= -0.04\ngini = 0.49\nsamples = 17\nvalue = [12, 15]\nclass = L", fillcolor="#d7ebfa"] ;
92 -> 93 ;
94 [label="IframeOrFrame <= 0.34\ngini = 0.43\nsamples = 7\nvalue = [9, 4]\nclass = C", fillcolor="#f1b991"] ;
93 -> 94 ;
95 [label="gini = 0.0\nsamples = 5\nvalue = [9, 0]\nclass = C", fillcolor="#e58139"] ;
94 -> 95 ;
96 [label="gini = 0.0\nsamples = 2\nvalue = [0, 4]\nclass = L", fillcolor="#399de5"] ;
94 -> 96 ;
97 [label="UrlLength <= -0.84\ngini = 0.34\nsamples = 10\nvalue = [3, 11]\nclass = L", fillcolor="#6fb8ec"] ;
93 -> 97 ;
98 [label="gini = 0.0\nsamples = 2\nvalue = [3, 0]\nclass = C", fillcolor="#e58139"] ;
97 -> 98 ;
99 [label="gini = 0.0\nsamples = 8\nvalue = [0, 11]\nclass = L", fillcolor="#399de5"] ;
97 -> 99 ;
100 [label="SubdomainLevel <= -0.12\ngini = 0.03\nsamples = 43\nvalue = [66, 1]\nclass = C", fillcolor="#e5833c"] ;
92 -> 100 ;
101 [label="PctExtNullSelfRedirectHyperlinksRT <= 0.2\ngini = 0.07\nsamples = 17\nvalue = [26, 1]\nclass = C", fillcolor="#e68641"] ;
100 -> 101 ;
102 [label="gini = 0.0\nsamples = 1\nvalue = [0, 1]\nclass = L", fillcolor="#399de5"] ;
101 -> 102 ;
103 [label="gini = 0.0\nsamples = 16\nvalue = [26, 0]\nclass = C", fillcolor="#e58139"] ;
101 -> 103 ;
104 [label="gini = 0.0\nsamples = 26\nvalue = [40, 0]\nclass = C", fillcolor="#e58139"] ;
100 -> 104 ;
105 [label="gini = 0.0\nsamples = 39\nvalue = [63, 0]\nclass = C", fillcolor="#e58139"] ;
91 -> 105 ;
106 [label="gini = 0.0\nsamples = 37\nvalue = [58, 0]\nclass = C", fillcolor="#e58139"] ;
90 -> 106 ;
107 [label="gini = 0.0\nsamples = 14\nvalue = [0, 24]\nclass = L", fillcolor="#399de5"] ;
89 -> 107 ;
108 [label="PctExtResourceUrlsRT <= 0.17\ngini = 0.05\nsamples = 114\nvalue = [176, 5]\nclass = C", fillcolor="#e6853f"] ;
88 -> 108 ;
109 [label="gini = 0.0\nsamples = 8\nvalue = [12, 0]\nclass = C", fillcolor="#e58139"] ;
108 -> 109 ;
110 [label="SubmitInfoToEmail <= 1.09\ngini = 0.06\nsamples = 106\nvalue = [164, 5]\nclass = C", fillcolor="#e6853f"] ;
108 -> 110 ;
111 [label="ExtFavicon <= 0.91\ngini = 0.07\nsamples = 82\nvalue = [131, 5]\nclass = C", fillcolor="#e68641"] ;
110 -> 111 ;
112 [label="HostnameLength <= -1.01\ngini = 0.02\nsamples = 80\nvalue = [131, 1]\nclass = C", fillcolor="#e5823b"] ;
111 -> 112 ;
113 [label="PctExtResourceUrls <= -0.62\ngini = 0.22\nsamples = 5\nvalue = [7, 1]\nclass = C", fillcolor="#e99355"] ;
112 -> 113 ;
114 [label="gini = 0.0\nsamples = 2\nvalue = [4, 0]\nclass = C", fillcolor="#e58139"] ;
113 -> 114 ;
115 [label="NumPercent <= 2.35\ngini = 0.38\nsamples = 3\nvalue = [3, 1]\nclass = C", fillcolor="#eeab7b"] ;
113 -> 115 ;
116 [label="gini = 0.0\nsamples = 1\nvalue = [0, 1]\nclass = L", fillcolor="#399de5"] ;
115 -> 116 ;
117 [label="gini = 0.0\nsamples = 2\nvalue = [3, 0]\nclass = C", fillcolor="#e58139"] ;
115 -> 117 ;
118 [label="gini = 0.0\nsamples = 75\nvalue = [124, 0]\nclass = C", fillcolor="#e58139"] ;
112 -> 118 ;
119 [label="gini = 0.0\nsamples = 2\nvalue = [0, 4]\nclass = L", fillcolor="#399de5"] ;
111 -> 119 ;
120 [label="gini = 0.0\nsamples = 24\nvalue = [33, 0]\nclass = C", fillcolor="#e58139"] ;
110 -> 120 ;
121 [label="PctExtResourceUrls <= -0.92\ngini = 0.5\nsamples = 26\nvalue = [21, 18]\nclass = C", fillcolor="#fbede3"] ;
85 -> 121 ;
122 [label="gini = 0.0\nsamples = 3\nvalue = [0, 5]\nclass = L", fillcolor="#399de5"] ;
121 -> 122 ;
123 [label="NumDots <= 2.71\ngini = 0.47\nsamples = 23\nvalue = [21, 13]\nclass = C", fillcolor="#f5cfb4"] ;
121 -> 123 ;
124 [label="ImagesOnlyInForm <= 2.71\ngini = 0.42\nsamples = 20\nvalue = [21, 9]\nclass = C", fillcolor="#f0b78e"] ;
123 -> 124 ;
125 [label="NumSensitiveWords <= 1.08\ngini = 0.36\nsamples = 17\nvalue = [20, 6]\nclass = C", fillcolor="#eda774"] ;
124 -> 125 ;
126 [label="NumQueryComponents <= 0.03\ngini = 0.29\nsamples = 15\nvalue = [19, 4]\nclass = C", fillcolor="#ea9c63"] ;
125 -> 126 ;
127 [label="NumDash <= -0.43\ngini = 0.41\nsamples = 9\nvalue = [10, 4]\nclass = C", fillcolor="#efb388"] ;
126 -> 127 ;
128 [label="gini = 0.0\nsamples = 3\nvalue = [7, 0]\nclass = C", fillcolor="#e58139"] ;
127 -> 128 ;
129 [label="UrlLength <= 1.19\ngini = 0.49\nsamples = 6\nvalue = [3, 4]\nclass = L", fillcolor="#cee6f8"] ;
127 -> 129 ;
130 [label="ExtFormAction <= 1.3\ngini = 0.32\nsamples = 4\nvalue = [1, 4]\nclass = L", fillcolor="#6ab6ec"] ;
129 -> 130 ;
131 [label="gini = 0.0\nsamples = 3\nvalue = [0, 4]\nclass = L", fillcolor="#399de5"] ;
130 -> 131 ;
132 [label="gini = 0.0\nsamples = 1\nvalue = [1, 0]\nclass = C", fillcolor="#e58139"] ;
130 -> 132 ;
133 [label="gini = 0.0\nsamples = 2\nvalue = [2, 0]\nclass = C", fillcolor="#e58139"] ;
129 -> 133 ;
134 [label="gini = 0.0\nsamples = 6\nvalue = [9, 0]\nclass = C", fillcolor="#e58139"] ;
126 -> 134 ;
135 [label="IframeOrFrame <= 0.34\ngini = 0.44\nsamples = 2\nvalue = [1, 2]\nclass = L", fillcolor="#9ccef2"] ;
125 -> 135 ;
136 [label="gini = 0.0\nsamples = 1\nvalue = [1, 0]\nclass = C", fillcolor="#e58139"] ;
135 -> 136 ;
137 [label="gini = 0.0\nsamples = 1\nvalue = [0, 2]\nclass = L", fillcolor="#399de5"] ;
135 -> 137 ;
138 [label="PathLevel <= 0.12\ngini = 0.38\nsamples = 3\nvalue = [1, 3]\nclass = L", fillcolor="#7bbeee"] ;
124 -> 138 ;
139 [label="gini = 0.0\nsamples = 1\nvalue = [1, 0]\nclass = C", fillcolor="#e58139"] ;
138 -> 139 ;
140 [label="gini = 0.0\nsamples = 2\nvalue = [0, 3]\nclass = L", fillcolor="#399de5"] ;
138 -> 140 ;
141 [label="gini = 0.0\nsamples = 3\nvalue = [0, 4]\nclass = L", fillcolor="#399de5"] ;
123 -> 141 ;
142 [label="NumQueryComponents <= 0.79\ngini = 0.32\nsamples = 4\nvalue = [1, 4]\nclass = L", fillcolor="#6ab6ec"] ;
84 -> 142 ;
143 [label="gini = 0.0\nsamples = 1\nvalue = [1, 0]\nclass = C", fillcolor="#e58139"] ;
142 -> 143 ;
144 [label="gini = 0.0\nsamples = 3\nvalue = [0, 4]\nclass = L", fillcolor="#399de5"] ;
142 -> 144 ;
145 [label="PctExtResourceUrls <= 0.53\ngini = 0.17\nsamples = 473\nvalue = [657, 70]\nclass = C", fillcolor="#e88e4e"] ;
59 -> 145 ;
146 [label="NumSensitiveWords <= 1.08\ngini = 0.07\nsamples = 200\nvalue = [285, 11]\nclass = C", fillcolor="#e68641"] ;
145 -> 146 ;
147 [label="RightClickDisabled <= 4.06\ngini = 0.05\nsamples = 190\nvalue = [275, 8]\nclass = C", fillcolor="#e6853f"] ;
146 -> 147 ;
148 [label="NumDashInHostname <= 0.66\ngini = 0.04\nsamples = 188\nvalue = [274, 6]\nclass = C", fillcolor="#e6843d"] ;
147 -> 148 ;
149 [label="gini = 0.0\nsamples = 172\nvalue = [256, 0]\nclass = C", fillcolor="#e58139"] ;
148 -> 149 ;
150 [label="PctExtResourceUrlsRT <= 0.17\ngini = 0.38\nsamples = 16\nvalue = [18, 6]\nclass = C", fillcolor="#eeab7b"] ;
148 -> 150 ;
151 [label="ExtFavicon <= 0.91\ngini = 0.48\nsamples = 9\nvalue = [9, 6]\nclass = C", fillcolor="#f6d5bd"] ;
150 -> 151 ;
152 [label="NumDots <= -0.71\ngini = 0.3\nsamples = 7\nvalue = [9, 2]\nclass = C", fillcolor="#eb9d65"] ;
151 -> 152 ;
153 [label="gini = 0.0\nsamples = 3\nvalue = [5, 0]\nclass = C", fillcolor="#e58139"] ;
152 -> 153 ;
154 [label="UrlLengthRT <= 0.58\ngini = 0.44\nsamples = 4\nvalue = [4, 2]\nclass = C", fillcolor="#f2c09c"] ;
152 -> 154 ;
155 [label="gini = 0.0\nsamples = 2\nvalue = [3, 0]\nclass = C", fillcolor="#e58139"] ;
154 -> 155 ;
156 [label="PathLevel <= -0.96\ngini = 0.44\nsamples = 2\nvalue = [1, 2]\nclass = L", fillcolor="#9ccef2"] ;
154 -> 156 ;
157 [label="gini = 0.0\nsamples = 1\nvalue = [1, 0]\nclass = C", fillcolor="#e58139"] ;
156 -> 157 ;
158 [label="gini = 0.0\nsamples = 1\nvalue = [0, 2]\nclass = L", fillcolor="#399de5"] ;
156 -> 158 ;
159 [label="gini = 0.0\nsamples = 2\nvalue = [0, 4]\nclass = L", fillcolor="#399de5"] ;
151 -> 159 ;
160 [label="gini = 0.0\nsamples = 7\nvalue = [9, 0]\nclass = C", fillcolor="#e58139"] ;
150 -> 160 ;
161 [label="NumAmpersand <= 0.67\ngini = 0.44\nsamples = 2\nvalue = [1, 2]\nclass = L", fillcolor="#9ccef2"] ;
147 -> 161 ;
162 [label="gini = 0.0\nsamples = 1\nvalue = [0, 2]\nclass = L", fillcolor="#399de5"] ;
161 -> 162 ;
163 [label="gini = 0.0\nsamples = 1\nvalue = [1, 0]\nclass = C", fillcolor="#e58139"] ;
161 -> 163 ;
164 [label="QueryLength <= 0.11\ngini = 0.36\nsamples = 10\nvalue = [10, 3]\nclass = C", fillcolor="#eda774"] ;
146 -> 164 ;
165 [label="gini = 0.0\nsamples = 2\nvalue = [0, 3]\nclass = L", fillcolor="#399de5"] ;
164 -> 165 ;
166 [label="gini = 0.0\nsamples = 8\nvalue = [10, 0]\nclass = C", fillcolor="#e58139"] ;
164 -> 166 ;
167 [label="SubdomainLevelRT <= -5.92\ngini = 0.24\nsamples = 273\nvalue = [372, 59]\nclass = C", fillcolor="#e99558"] ;
145 -> 167 ;
168 [label="gini = 0.0\nsamples = 2\nvalue = [0, 2]\nclass = L", fillcolor="#399de5"] ;
167 -> 168 ;
169 [label="RandomString <= -0.04\ngini = 0.23\nsamples = 271\nvalue = [372, 57]\nclass = C", fillcolor="#e99457"] ;
167 -> 169 ;
170 [label="NumDots <= 0.81\ngini = 0.34\nsamples = 132\nvalue = [158, 44]\nclass = C", fillcolor="#eca470"] ;
169 -> 170 ;
171 [label="SubdomainLevel <= -0.12\ngini = 0.26\nsamples = 117\nvalue = [150, 27]\nclass = C", fillcolor="#ea985d"] ;
170 -> 171 ;
172 [label="NumDots <= -0.71\ngini = 0.38\nsamples = 58\nvalue = [66, 23]\nclass = C", fillcolor="#eead7e"] ;
171 -> 172 ;
173 [label="NumDashInHostname <= 0.66\ngini = 0.14\nsamples = 27\nvalue = [38, 3]\nclass = C", fillcolor="#e78b49"] ;
172 -> 173 ;
174 [label="gini = 0.0\nsamples = 24\nvalue = [37, 0]\nclass = C", fillcolor="#e58139"] ;
173 -> 174 ;
175 [label="HostnameLength <= -0.28\ngini = 0.38\nsamples = 3\nvalue = [1, 3]\nclass = L", fillcolor="#7bbeee"] ;
173 -> 175 ;
176 [label="gini = 0.0\nsamples = 2\nvalue = [0, 3]\nclass = L", fillcolor="#399de5"] ;
175 -> 176 ;
177 [label="gini = 0.0\nsamples = 1\nvalue = [1, 0]\nclass = C", fillcolor="#e58139"] ;
175 -> 177 ;
178 [label="QueryLength <= 1.05\ngini = 0.49\nsamples = 31\nvalue = [28, 20]\nclass = C", fillcolor="#f8dbc6"] ;
172 -> 178 ;
179 [label="PctExtResourceUrlsRT <= -0.96\ngini = 0.5\nsamples = 24\nvalue = [16, 19]\nclass = L", fillcolor="#e0f0fb"] ;
178 -> 179 ;
180 [label="PctExtNullSelfRedirectHyperlinksRT <= 0.2\ngini = 0.44\nsamples = 17\nvalue = [8, 16]\nclass = L", fillcolor="#9ccef2"] ;
179 -> 180 ;
181 [label="NumDash <= -0.1\ngini = 0.5\nsamples = 3\nvalue = [2, 2]\nclass = C", fillcolor="#ffffff"] ;
180 -> 181 ;
182 [label="DomainInPaths <= 0.14\ngini = 0.44\nsamples = 2\nvalue = [2, 1]\nclass = C", fillcolor="#f2c09c"] ;
181 -> 182 ;
183 [label="gini = 0.0\nsamples = 1\nvalue = [0, 1]\nclass = L", fillcolor="#399de5"] ;
182 -> 183 ;
184 [label="gini = 0.0\nsamples = 1\nvalue = [2, 0]\nclass = C", fillcolor="#e58139"] ;
182 -> 184 ;
185 [label="gini = 0.0\nsamples = 1\nvalue = [0, 1]\nclass = L", fillcolor="#399de5"] ;
181 -> 185 ;
186 [label="PctExtHyperlinks <= -0.68\ngini = 0.42\nsamples = 14\nvalue = [6, 14]\nclass = L", fillcolor="#8ec7f0"] ;
180 -> 186 ;
187 [label="gini = 0.0\nsamples = 7\nvalue = [0, 11]\nclass = L", fillcolor="#399de5"] ;
186 -> 187 ;
188 [label="DomainInPaths <= 0.14\ngini = 0.44\nsamples = 7\nvalue = [6, 3]\nclass = C", fillcolor="#f2c09c"] ;
186 -> 188 ;
189 [label="PctExtHyperlinks <= -0.21\ngini = 0.38\nsamples = 4\nvalue = [1, 3]\nclass = L", fillcolor="#7bbeee"] ;
188 -> 189 ;
190 [label="gini = 0.0\nsamples = 3\nvalue = [0, 3]\nclass = L", fillcolor="#399de5"] ;
189 -> 190 ;
191 [label="gini = 0.0\nsamples = 1\nvalue = [1, 0]\nclass = C", fillcolor="#e58139"] ;
189 -> 191 ;
192 [label="gini = 0.0\nsamples = 3\nvalue = [5, 0]\nclass = C", fillcolor="#e58139"] ;
188 -> 192 ;
193 [label="HostnameLength <= 0.39\ngini = 0.4\nsamples = 7\nvalue = [8, 3]\nclass = C", fillcolor="#efb083"] ;
179 -> 193 ;
194 [label="QueryLength <= -0.08\ngini = 0.2\nsamples = 6\nvalue = [8, 1]\nclass = C", fillcolor="#e89152"] ;
193 -> 194 ;
195 [label="NumDash <= -0.43\ngini = 0.32\nsamples = 3\nvalue = [4, 1]\nclass = C", fillcolor="#eca06a"] ;
194 -> 195 ;
196 [label="gini = 0.0\nsamples = 1\nvalue = [3, 0]\nclass = C", fillcolor="#e58139"] ;
195 -> 196 ;
197 [label="InsecureForms <= -0.96\ngini = 0.5\nsamples = 2\nvalue = [1, 1]\nclass = C", fillcolor="#ffffff"] ;
195 -> 197 ;
198 [label="gini = 0.0\nsamples = 1\nvalue = [1, 0]\nclass = C", fillcolor="#e58139"] ;
197 -> 198 ;
199 [label="gini = 0.0\nsamples = 1\nvalue = [0, 1]\nclass = L", fillcolor="#399de5"] ;
197 -> 199 ;
200 [label="gini = 0.0\nsamples = 3\nvalue = [4, 0]\nclass = C", fillcolor="#e58139"] ;
194 -> 200 ;
201 [label="gini = 0.0\nsamples = 1\nvalue = [0, 2]\nclass = L", fillcolor="#399de5"] ;
193 -> 201 ;
202 [label="PathLength <= -0.79\ngini = 0.14\nsamples = 7\nvalue = [12, 1]\nclass = C", fillcolor="#e78c49"] ;
178 -> 202 ;
203 [label="gini = 0.0\nsamples = 6\nvalue = [12, 0]\nclass = C", fillcolor="#e58139"] ;
202 -> 203 ;
204 [label="gini = 0.0\nsamples = 1\nvalue = [0, 1]\nclass = L", fillcolor="#399de5"] ;
202 -> 204 ;
205 [label="PctExtResourceUrls <= 0.72\ngini = 0.09\nsamples = 59\nvalue = [84, 4]\nclass = C", fillcolor="#e68742"] ;
171 -> 205 ;
206 [label="HostnameLength <= 0.39\ngini = 0.22\nsamples = 11\nvalue = [14, 2]\nclass = C", fillcolor="#e99355"] ;
205 -> 206 ;
207 [label="gini = 0.0\nsamples = 10\nvalue = [14, 0]\nclass = C", fillcolor="#e58139"] ;
206 -> 207 ;
208 [label="gini = 0.0\nsamples = 1\nvalue = [0, 2]\nclass = L", fillcolor="#399de5"] ;
206 -> 208 ;
209 [label="QueryLength <= -0.18\ngini = 0.05\nsamples = 48\nvalue = [70, 2]\nclass = C", fillcolor="#e6853f"] ;
205 -> 209 ;
210 [label="SubdomainLevelRT <= -1.86\ngini = 0.17\nsamples = 16\nvalue = [20, 2]\nclass = C", fillcolor="#e88e4d"] ;
209 -> 210 ;
211 [label="gini = 0.0\nsamples = 1\nvalue = [3, 0]\nclass = C", fillcolor="#e58139"] ;
210 -> 211 ;
212 [label="PctExtResourceUrls <= 1.55\ngini = 0.19\nsamples = 15\nvalue = [17, 2]\nclass = C", fillcolor="#e89050"] ;
210 -> 212 ;
213 [label="gini = 0.0\nsamples = 9\nvalue = [12, 0]\nclass = C", fillcolor="#e58139"] ;
212 -> 213 ;
214 [label="TildeSymbol <= 4.34\ngini = 0.41\nsamples = 6\nvalue = [5, 2]\nclass = C", fillcolor="#efb388"] ;
212 -> 214 ;
215 [label="AbnormalExtFormActionR <= -0.56\ngini = 0.28\nsamples = 5\nvalue = [5, 1]\nclass = C", fillcolor="#ea9a61"] ;
214 -> 215 ;
216 [label="gini = 0.0\nsamples = 1\nvalue = [1, 0]\nclass = C", fillcolor="#e58139"] ;
215 -> 216 ;
217 [label="PctExtNullSelfRedirectHyperlinksRT <= 0.2\ngini = 0.32\nsamples = 4\nvalue = [4, 1]\nclass = C", fillcolor="#eca06a"] ;
215 -> 217 ;
218 [label="gini = 0.0\nsamples = 1\nvalue = [0, 1]\nclass = L", fillcolor="#399de5"] ;
217 -> 218 ;
219 [label="gini = 0.0\nsamples = 3\nvalue = [4, 0]\nclass = C", fillcolor="#e58139"] ;
217 -> 219 ;
220 [label="gini = 0.0\nsamples = 1\nvalue = [0, 1]\nclass = L", fillcolor="#399de5"] ;
214 -> 220 ;
221 [label="gini = 0.0\nsamples = 32\nvalue = [50, 0]\nclass = C", fillcolor="#e58139"] ;
209 -> 221 ;
222 [label="ExtFavicon <= 0.91\ngini = 0.44\nsamples = 15\nvalue = [8, 17]\nclass = L", fillcolor="#96cbf1"] ;
170 -> 222 ;
223 [label="HostnameLength <= -0.16\ngini = 0.22\nsamples = 5\nvalue = [7, 1]\nclass = C", fillcolor="#e99355"] ;
222 -> 223 ;
224 [label="NumNumericChars <= 0.34\ngini = 0.5\nsamples = 2\nvalue = [1, 1]\nclass = C", fillcolor="#ffffff"] ;
223 -> 224 ;
225 [label="gini = 0.0\nsamples = 1\nvalue = [0, 1]\nclass = L", fillcolor="#399de5"] ;
224 -> 225 ;
226 [label="gini = 0.0\nsamples = 1\nvalue = [1, 0]\nclass = C", fillcolor="#e58139"] ;
224 -> 226 ;
227 [label="gini = 0.0\nsamples = 3\nvalue = [6, 0]\nclass = C", fillcolor="#e58139"] ;
223 -> 227 ;
228 [label="PctExtHyperlinks <= -0.6\ngini = 0.11\nsamples = 10\nvalue = [1, 16]\nclass = L", fillcolor="#45a3e7"] ;
222 -> 228 ;
229 [label="gini = 0.0\nsamples = 9\nvalue = [0, 16]\nclass = L", fillcolor="#399de5"] ;
228 -> 229 ;
230 [label="gini = 0.0\nsamples = 1\nvalue = [1, 0]\nclass = C", fillcolor="#e58139"] ;
228 -> 230 ;
231 [label="UrlLength <= 1.14\ngini = 0.11\nsamples = 139\nvalue = [214, 13]\nclass = C", fillcolor="#e78945"] ;
169 -> 231 ;
232 [label="NumAmpersand <= 0.21\ngini = 0.14\nsamples = 105\nvalue = [154, 13]\nclass = C", fillcolor="#e78c4a"] ;
231 -> 232 ;
233 [label="IframeOrFrame <= 0.34\ngini = 0.17\nsamples = 86\nvalue = [122, 13]\nclass = C", fillcolor="#e88e4e"] ;
232 -> 233 ;
234 [label="NumDots <= 0.05\ngini = 0.34\nsamples = 39\nvalue = [48, 13]\nclass = C", fillcolor="#eca36f"] ;
233 -> 234 ;
235 [label="NumNumericChars <= -0.03\ngini = 0.12\nsamples = 28\nvalue = [44, 3]\nclass = C", fillcolor="#e78a46"] ;
234 -> 235 ;
236 [label="NumNumericChars <= -0.13\ngini = 0.4\nsamples = 8\nvalue = [8, 3]\nclass = C", fillcolor="#efb083"] ;
235 -> 236 ;
237 [label="gini = 0.0\nsamples = 5\nvalue = [6, 0]\nclass = C", fillcolor="#e58139"] ;
236 -> 237 ;
238 [label="PctExtResourceUrls <= 0.88\ngini = 0.48\nsamples = 3\nvalue = [2, 3]\nclass = L", fillcolor="#bddef6"] ;
236 -> 238 ;
239 [label="gini = 0.0\nsamples = 1\nvalue = [0, 3]\nclass = L", fillcolor="#399de5"] ;
238 -> 239 ;
240 [label="gini = 0.0\nsamples = 2\nvalue = [2, 0]\nclass = C", fillcolor="#e58139"] ;
238 -> 240 ;
241 [label="gini = 0.0\nsamples = 20\nvalue = [36, 0]\nclass = C", fillcolor="#e58139"] ;
235 -> 241 ;
242 [label="SubdomainLevel <= -0.12\ngini = 0.41\nsamples = 11\nvalue = [4, 10]\nclass = L", fillcolor="#88c4ef"] ;
234 -> 242 ;
243 [label="gini = 0.0\nsamples = 5\nvalue = [0, 7]\nclass = L", fillcolor="#399de5"] ;
242 -> 243 ;
244 [label="PctExtHyperlinks <= -0.04\ngini = 0.49\nsamples = 6\nvalue = [4, 3]\nclass = C", fillcolor="#f8e0ce"] ;
242 -> 244 ;
245 [label="UrlLength <= -0.01\ngini = 0.32\nsamples = 4\nvalue = [4, 1]\nclass = C", fillcolor="#eca06a"] ;
244 -> 245 ;
246 [label="DomainInPaths <= 0.14\ngini = 0.5\nsamples = 2\nvalue = [1, 1]\nclass = C", fillcolor="#ffffff"] ;
245 -> 246 ;
247 [label="gini = 0.0\nsamples = 1\nvalue = [0, 1]\nclass = L", fillcolor="#399de5"] ;
246 -> 247 ;
248 [label="gini = 0.0\nsamples = 1\nvalue = [1, 0]\nclass = C", fillcolor="#e58139"] ;
246 -> 248 ;
249 [label="gini = 0.0\nsamples = 2\nvalue = [3, 0]\nclass = C", fillcolor="#e58139"] ;
245 -> 249 ;
250 [label="gini = 0.0\nsamples = 2\nvalue = [0, 2]\nclass = L", fillcolor="#399de5"] ;
244 -> 250 ;
251 [label="gini = 0.0\nsamples = 47\nvalue = [74, 0]\nclass = C", fillcolor="#e58139"] ;
233 -> 251 ;
252 [label="gini = 0.0\nsamples = 19\nvalue = [32, 0]\nclass = C", fillcolor="#e58139"] ;
232 -> 252 ;
253 [label="gini = 0.0\nsamples = 34\nvalue = [60, 0]\nclass = C", fillcolor="#e58139"] ;
231 -> 253 ;
254 [label="NumDots <= 6.14\ngini = 0.47\nsamples = 57\nvalue = [32, 53]\nclass = L", fillcolor="#b1d8f5"] ;
58 -> 254 ;
255 [label="NumDots <= -0.71\ngini = 0.5\nsamples = 48\nvalue = [32, 39]\nclass = L", fillcolor="#dbedfa"] ;
254 -> 255 ;
256 [label="gini = 0.0\nsamples = 4\nvalue = [5, 0]\nclass = C", fillcolor="#e58139"] ;
255 -> 256 ;
257 [label="PathLength <= 0.29\ngini = 0.48\nsamples = 44\nvalue = [27, 39]\nclass = L", fillcolor="#c2e1f7"] ;
255 -> 257 ;
258 [label="QueryLength <= 1.23\ngini = 0.25\nsamples = 18\nvalue = [23, 4]\nclass = C", fillcolor="#ea975b"] ;
257 -> 258 ;
259 [label="ImagesOnlyInForm <= 2.71\ngini = 0.38\nsamples = 3\nvalue = [1, 3]\nclass = L", fillcolor="#7bbeee"] ;
258 -> 259 ;
260 [label="DomainInSubdomains <= 3.22\ngini = 0.5\nsamples = 2\nvalue = [1, 1]\nclass = C", fillcolor="#ffffff"] ;
259 -> 260 ;
261 [label="gini = 0.0\nsamples = 1\nvalue = [1, 0]\nclass = C", fillcolor="#e58139"] ;
260 -> 261 ;
262 [label="gini = 0.0\nsamples = 1\nvalue = [0, 1]\nclass = L", fillcolor="#399de5"] ;
260 -> 262 ;
263 [label="gini = 0.0\nsamples = 1\nvalue = [0, 2]\nclass = L", fillcolor="#399de5"] ;
259 -> 263 ;
264 [label="NumNumericChars <= 2.15\ngini = 0.08\nsamples = 15\nvalue = [22, 1]\nclass = C", fillcolor="#e68742"] ;
258 -> 264 ;
265 [label="SubmitInfoToEmail <= 1.09\ngini = 0.32\nsamples = 3\nvalue = [4, 1]\nclass = C", fillcolor="#eca06a"] ;
264 -> 265 ;
266 [label="UrlLength <= 2.54\ngini = 0.5\nsamples = 2\nvalue = [1, 1]\nclass = C", fillcolor="#ffffff"] ;
265 -> 266 ;
267 [label="gini = 0.0\nsamples = 1\nvalue = [1, 0]\nclass = C", fillcolor="#e58139"] ;
266 -> 267 ;
268 [label="gini = 0.0\nsamples = 1\nvalue = [0, 1]\nclass = L", fillcolor="#399de5"] ;
266 -> 268 ;
269 [label="gini = 0.0\nsamples = 1\nvalue = [3, 0]\nclass = C", fillcolor="#e58139"] ;
265 -> 269 ;
270 [label="gini = 0.0\nsamples = 12\nvalue = [18, 0]\nclass = C", fillcolor="#e58139"] ;
264 -> 270 ;
271 [label="RandomString <= -0.04\ngini = 0.18\nsamples = 26\nvalue = [4, 35]\nclass = L", fillcolor="#50a8e8"] ;
257 -> 271 ;
272 [label="gini = 0.0\nsamples = 1\nvalue = [1, 0]\nclass = C", fillcolor="#e58139"] ;
271 -> 272 ;
273 [label="PctExtResourceUrls <= -0.34\ngini = 0.15\nsamples = 25\nvalue = [3, 35]\nclass = L", fillcolor="#4aa5e7"] ;
271 -> 273 ;
274 [label="gini = 0.0\nsamples = 15\nvalue = [0, 22]\nclass = L", fillcolor="#399de5"] ;
273 -> 274 ;
275 [label="HostnameLength <= 0.26\ngini = 0.3\nsamples = 10\nvalue = [3, 13]\nclass = L", fillcolor="#67b4eb"] ;
273 -> 275 ;
276 [label="PctExtResourceUrlsRT <= -0.4\ngini = 0.13\nsamples = 8\nvalue = [1, 13]\nclass = L", fillcolor="#48a5e7"] ;
275 -> 276 ;
277 [label="gini = 0.0\nsamples = 4\nvalue = [0, 5]\nclass = L", fillcolor="#399de5"] ;
276 -> 277 ;
278 [label="HostnameLength <= -0.77\ngini = 0.2\nsamples = 4\nvalue = [1, 8]\nclass = L", fillcolor="#52a9e8"] ;
276 -> 278 ;
279 [label="gini = 0.0\nsamples = 3\nvalue = [0, 8]\nclass = L", fillcolor="#399de5"] ;
278 -> 279 ;
280 [label="gini = 0.0\nsamples = 1\nvalue = [1, 0]\nclass = C", fillcolor="#e58139"] ;
278 -> 280 ;
281 [label="gini = 0.0\nsamples = 2\nvalue = [2, 0]\nclass = C", fillcolor="#e58139"] ;
275 -> 281 ;
282 [label="gini = 0.0\nsamples = 9\nvalue = [0, 14]\nclass = L", fillcolor="#399de5"] ;
254 -> 282 ;
283 [label="SubdomainLevel <= 1.2\ngini = 0.03\nsamples = 1101\nvalue = [1708, 30]\nclass = C", fillcolor="#e5833c"] ;
57 -> 283 ;
284 [label="PctExtNullSelfRedirectHyperlinksRT <= 0.2\ngini = 0.03\nsamples = 1087\nvalue = [1693, 25]\nclass = C", fillcolor="#e5833c"] ;
283 -> 284 ;
285 [label="PathLength <= -0.4\ngini = 0.09\nsamples = 209\nvalue = [315, 15]\nclass = C", fillcolor="#e68742"] ;
284 -> 285 ;
286 [label="RandomString <= -0.04\ngini = 0.23\nsamples = 64\nvalue = [84, 13]\nclass = C", fillcolor="#e99458"] ;
285 -> 286 ;
287 [label="ExtFavicon <= 0.91\ngini = 0.3\nsamples = 40\nvalue = [49, 11]\nclass = C", fillcolor="#eb9d65"] ;
286 -> 287 ;
288 [label="PctExtResourceUrls <= 0.55\ngini = 0.27\nsamples = 36\nvalue = [47, 9]\nclass = C", fillcolor="#ea995f"] ;
287 -> 288 ;
289 [label="UrlLength <= -0.68\ngini = 0.08\nsamples = 30\nvalue = [43, 2]\nclass = C", fillcolor="#e68742"] ;
288 -> 289 ;
290 [label="gini = 0.0\nsamples = 24\nvalue = [37, 0]\nclass = C", fillcolor="#e58139"] ;
289 -> 290 ;
291 [label="PctExtResourceUrlsRT <= 0.17\ngini = 0.38\nsamples = 6\nvalue = [6, 2]\nclass = C", fillcolor="#eeab7b"] ;
289 -> 291 ;
292 [label="gini = 0.0\nsamples = 2\nvalue = [2, 0]\nclass = C", fillcolor="#e58139"] ;
291 -> 292 ;
293 [label="IframeOrFrame <= 0.34\ngini = 0.44\nsamples = 4\nvalue = [4, 2]\nclass = C", fillcolor="#f2c09c"] ;
291 -> 293 ;
294 [label="gini = 0.0\nsamples = 1\nvalue = [0, 2]\nclass = L", fillcolor="#399de5"] ;
293 -> 294 ;
295 [label="gini = 0.0\nsamples = 3\nvalue = [4, 0]\nclass = C", fillcolor="#e58139"] ;
293 -> 295 ;
296 [label="ExtMetaScriptLinkRT <= -0.89\ngini = 0.46\nsamples = 6\nvalue = [4, 7]\nclass = L", fillcolor="#aad5f4"] ;
288 -> 296 ;
297 [label="gini = 0.0\nsamples = 2\nvalue = [0, 5]\nclass = L", fillcolor="#399de5"] ;
296 -> 297 ;
298 [label="SubdomainLevel <= -0.12\ngini = 0.44\nsamples = 4\nvalue = [4, 2]\nclass = C", fillcolor="#f2c09c"] ;
296 -> 298 ;
299 [label="IframeOrFrame <= 0.34\ngini = 0.44\nsamples = 2\nvalue = [1, 2]\nclass = L", fillcolor="#9ccef2"] ;
298 -> 299 ;
300 [label="gini = 0.0\nsamples = 1\nvalue = [0, 2]\nclass = L", fillcolor="#399de5"] ;
299 -> 300 ;
301 [label="gini = 0.0\nsamples = 1\nvalue = [1, 0]\nclass = C", fillcolor="#e58139"] ;
299 -> 301 ;
302 [label="gini = 0.0\nsamples = 2\nvalue = [3, 0]\nclass = C", fillcolor="#e58139"] ;
298 -> 302 ;
303 [label="PctExtResourceUrls <= 1.19\ngini = 0.5\nsamples = 4\nvalue = [2, 2]\nclass = C", fillcolor="#ffffff"] ;
287 -> 303 ;
304 [label="gini = 0.0\nsamples = 2\nvalue = [2, 0]\nclass = C", fillcolor="#e58139"] ;
303 -> 304 ;
305 [label="gini = 0.0\nsamples = 2\nvalue = [0, 2]\nclass = L", fillcolor="#399de5"] ;
303 -> 305 ;
306 [label="ExtFormAction <= 1.3\ngini = 0.1\nsamples = 24\nvalue = [35, 2]\nclass = C", fillcolor="#e68844"] ;
286 -> 306 ;
307 [label="gini = 0.0\nsamples = 21\nvalue = [31, 0]\nclass = C", fillcolor="#e58139"] ;
306 -> 307 ;
308 [label="NumDots <= -0.71\ngini = 0.44\nsamples = 3\nvalue = [4, 2]\nclass = C", fillcolor="#f2c09c"] ;
306 -> 308 ;
309 [label="gini = 0.0\nsamples = 1\nvalue = [2, 0]\nclass = C", fillcolor="#e58139"] ;
308 -> 309 ;
310 [label="PctExtResourceUrls <= 1.42\ngini = 0.5\nsamples = 2\nvalue = [2, 2]\nclass = C", fillcolor="#ffffff"] ;
308 -> 310 ;
311 [label="gini = 0.0\nsamples = 1\nvalue = [2, 0]\nclass = C", fillcolor="#e58139"] ;
310 -> 311 ;
312 [label="gini = 0.0\nsamples = 1\nvalue = [0, 2]\nclass = L", fillcolor="#399de5"] ;
310 -> 312 ;
313 [label="PctExtHyperlinks <= -0.67\ngini = 0.02\nsamples = 145\nvalue = [231, 2]\nclass = C", fillcolor="#e5823b"] ;
285 -> 313 ;
314 [label="gini = 0.0\nsamples = 1\nvalue = [0, 2]\nclass = L", fillcolor="#399de5"] ;
313 -> 314 ;
315 [label="gini = 0.0\nsamples = 144\nvalue = [231, 0]\nclass = C", fillcolor="#e58139"] ;
313 -> 315 ;
316 [label="NumDots <= 0.81\ngini = 0.01\nsamples = 878\nvalue = [1378, 10]\nclass = C", fillcolor="#e5823a"] ;
284 -> 316 ;
317 [label="ExtFavicon <= 0.91\ngini = 0.01\nsamples = 866\nvalue = [1358, 8]\nclass = C", fillcolor="#e5823a"] ;
316 -> 317 ;
318 [label="PctExtResourceUrlsRT <= -0.96\ngini = 0.01\nsamples = 673\nvalue = [1066, 3]\nclass = C", fillcolor="#e5813a"] ;
317 -> 318 ;
319 [label="NumNumericChars <= 1.35\ngini = 0.01\nsamples = 149\nvalue = [219, 1]\nclass = C", fillcolor="#e5823a"] ;
318 -> 319 ;
320 [label="gini = 0.0\nsamples = 148\nvalue = [219, 0]\nclass = C", fillcolor="#e58139"] ;
319 -> 320 ;
321 [label="gini = 0.0\nsamples = 1\nvalue = [0, 1]\nclass = L", fillcolor="#399de5"] ;
319 -> 321 ;
322 [label="NumNumericChars <= 1.14\ngini = 0.0\nsamples = 524\nvalue = [847, 2]\nclass = C", fillcolor="#e58139"] ;
318 -> 322 ;
323 [label="PctExtResourceUrls <= 0.78\ngini = 0.0\nsamples = 503\nvalue = [806, 1]\nclass = C", fillcolor="#e58139"] ;
322 -> 323 ;
324 [label="gini = 0.0\nsamples = 486\nvalue = [781, 0]\nclass = C", fillcolor="#e58139"] ;
323 -> 324 ;
325 [label="PctExtHyperlinks <= -0.53\ngini = 0.07\nsamples = 17\nvalue = [25, 1]\nclass = C", fillcolor="#e68641"] ;
323 -> 325 ;
326 [label="UrlLength <= -0.83\ngini = 0.2\nsamples = 5\nvalue = [8, 1]\nclass = C", fillcolor="#e89152"] ;
325 -> 326 ;
327 [label="HostnameLength <= -0.71\ngini = 0.38\nsamples = 3\nvalue = [3, 1]\nclass = C", fillcolor="#eeab7b"] ;
326 -> 327 ;
328 [label="gini = 0.0\nsamples = 1\nvalue = [0, 1]\nclass = L", fillcolor="#399de5"] ;
327 -> 328 ;
329 [label="gini = 0.0\nsamples = 2\nvalue = [3, 0]\nclass = C", fillcolor="#e58139"] ;
327 -> 329 ;
330 [label="gini = 0.0\nsamples = 2\nvalue = [5, 0]\nclass = C", fillcolor="#e58139"] ;
326 -> 330 ;
331 [label="gini = 0.0\nsamples = 12\nvalue = [17, 0]\nclass = C", fillcolor="#e58139"] ;
325 -> 331 ;
332 [label="HostnameLength <= -0.4\ngini = 0.05\nsamples = 21\nvalue = [41, 1]\nclass = C", fillcolor="#e6843e"] ;
322 -> 332 ;
333 [label="ExtMetaScriptLinkRT <= -0.89\ngini = 0.22\nsamples = 4\nvalue = [7, 1]\nclass = C", fillcolor="#e99355"] ;
332 -> 333 ;
334 [label="gini = 0.0\nsamples = 1\nvalue = [0, 1]\nclass = L", fillcolor="#399de5"] ;
333 -> 334 ;
335 [label="gini = 0.0\nsamples = 3\nvalue = [7, 0]\nclass = C", fillcolor="#e58139"] ;
333 -> 335 ;
336 [label="gini = 0.0\nsamples = 17\nvalue = [34, 0]\nclass = C", fillcolor="#e58139"] ;
332 -> 336 ;
337 [label="NumNumericChars <= 0.98\ngini = 0.03\nsamples = 193\nvalue = [292, 5]\nclass = C", fillcolor="#e5833c"] ;
317 -> 337 ;
338 [label="RandomString <= -0.04\ngini = 0.01\nsamples = 184\nvalue = [279, 2]\nclass = C", fillcolor="#e5823a"] ;
337 -> 338 ;
339 [label="PctExtHyperlinks <= -0.7\ngini = 0.04\nsamples = 63\nvalue = [97, 2]\nclass = C", fillcolor="#e6843d"] ;
338 -> 339 ;
340 [label="NumDashInHostname <= 0.66\ngini = 0.44\nsamples = 3\nvalue = [4, 2]\nclass = C", fillcolor="#f2c09c"] ;
339 -> 340 ;
341 [label="gini = 0.0\nsamples = 2\nvalue = [4, 0]\nclass = C", fillcolor="#e58139"] ;
340 -> 341 ;
342 [label="gini = 0.0\nsamples = 1\nvalue = [0, 2]\nclass = L", fillcolor="#399de5"] ;
340 -> 342 ;
343 [label="gini = 0.0\nsamples = 60\nvalue = [93, 0]\nclass = C", fillcolor="#e58139"] ;
339 -> 343 ;
344 [label="gini = 0.0\nsamples = 121\nvalue = [182, 0]\nclass = C", fillcolor="#e58139"] ;
338 -> 344 ;
345 [label="PctExtResourceUrls <= 1.5\ngini = 0.3\nsamples = 9\nvalue = [13, 3]\nclass = C", fillcolor="#eb9e67"] ;
337 -> 345 ;
346 [label="NumDash <= -0.43\ngini = 0.5\nsamples = 2\nvalue = [2, 2]\nclass = C", fillcolor="#ffffff"] ;
345 -> 346 ;
347 [label="gini = 0.0\nsamples = 1\nvalue = [0, 2]\nclass = L", fillcolor="#399de5"] ;
346 -> 347 ;
348 [label="gini = 0.0\nsamples = 1\nvalue = [2, 0]\nclass = C", fillcolor="#e58139"] ;
346 -> 348 ;
349 [label="SubmitInfoToEmail <= 1.09\ngini = 0.15\nsamples = 7\nvalue = [11, 1]\nclass = C", fillcolor="#e78c4b"] ;
345 -> 349 ;
350 [label="DomainInSubdomains <= 3.22\ngini = 0.2\nsamples = 6\nvalue = [8, 1]\nclass = C", fillcolor="#e89152"] ;
349 -> 350 ;
351 [label="gini = 0.0\nsamples = 5\nvalue = [8, 0]\nclass = C", fillcolor="#e58139"] ;
350 -> 351 ;
352 [label="gini = 0.0\nsamples = 1\nvalue = [0, 1]\nclass = L", fillcolor="#399de5"] ;
350 -> 352 ;
353 [label="gini = 0.0\nsamples = 1\nvalue = [3, 0]\nclass = C", fillcolor="#e58139"] ;
349 -> 353 ;
354 [label="HostnameLength <= 0.08\ngini = 0.17\nsamples = 12\nvalue = [20, 2]\nclass = C", fillcolor="#e88e4d"] ;
316 -> 354 ;
355 [label="gini = 0.0\nsamples = 7\nvalue = [14, 0]\nclass = C", fillcolor="#e58139"] ;
354 -> 355 ;
356 [label="PathLevel <= -0.42\ngini = 0.38\nsamples = 5\nvalue = [6, 2]\nclass = C", fillcolor="#eeab7b"] ;
354 -> 356 ;
357 [label="gini = 0.0\nsamples = 1\nvalue = [0, 2]\nclass = L", fillcolor="#399de5"] ;
356 -> 357 ;
358 [label="gini = 0.0\nsamples = 4\nvalue = [6, 0]\nclass = C", fillcolor="#e58139"] ;
356 -> 358 ;
359 [label="NumSensitiveWords <= 2.45\ngini = 0.38\nsamples = 14\nvalue = [15, 5]\nclass = C", fillcolor="#eeab7b"] ;
283 -> 359 ;
360 [label="NumUnderscore <= 0.16\ngini = 0.33\nsamples = 13\nvalue = [15, 4]\nclass = C", fillcolor="#eca36e"] ;
359 -> 360 ;
361 [label="DomainInSubdomains <= 3.22\ngini = 0.43\nsamples = 10\nvalue = [9, 4]\nclass = C", fillcolor="#f1b991"] ;
360 -> 361 ;
362 [label="PctExtNullSelfRedirectHyperlinksRT <= 0.2\ngini = 0.46\nsamples = 9\nvalue = [7, 4]\nclass = C", fillcolor="#f4c9aa"] ;
361 -> 362 ;
363 [label="PctExtHyperlinks <= 0.24\ngini = 0.32\nsamples = 5\nvalue = [1, 4]\nclass = L", fillcolor="#6ab6ec"] ;
362 -> 363 ;
364 [label="gini = 0.0\nsamples = 1\nvalue = [1, 0]\nclass = C", fillcolor="#e58139"] ;
363 -> 364 ;
365 [label="gini = 0.0\nsamples = 4\nvalue = [0, 4]\nclass = L", fillcolor="#399de5"] ;
363 -> 365 ;
366 [label="gini = 0.0\nsamples = 4\nvalue = [6, 0]\nclass = C", fillcolor="#e58139"] ;
362 -> 366 ;
367 [label="gini = 0.0\nsamples = 1\nvalue = [2, 0]\nclass = C", fillcolor="#e58139"] ;
361 -> 367 ;
368 [label="gini = 0.0\nsamples = 3\nvalue = [6, 0]\nclass = C", fillcolor="#e58139"] ;
360 -> 368 ;
369 [label="gini = 0.0\nsamples = 1\nvalue = [0, 1]\nclass = L", fillcolor="#399de5"] ;
359 -> 369 ;
370 [label="RelativeFormAction <= 0.58\ngini = 0.46\nsamples = 88\nvalue = [51, 88]\nclass = L", fillcolor="#acd6f4"] ;
2 -> 370 ;
371 [label="NumDash <= 0.89\ngini = 0.35\nsamples = 69\nvalue = [25, 85]\nclass = L", fillcolor="#73baed"] ;
370 -> 371 ;
372 [label="InsecureForms <= -0.96\ngini = 0.3\nsamples = 65\nvalue = [19, 85]\nclass = L", fillcolor="#65b3eb"] ;
371 -> 372 ;
373 [label="gini = 0.0\nsamples = 5\nvalue = [7, 0]\nclass = C", fillcolor="#e58139"] ;
372 -> 373 ;
374 [label="NumSensitiveWords <= 1.08\ngini = 0.22\nsamples = 60\nvalue = [12, 85]\nclass = L", fillcolor="#55abe9"] ;
372 -> 374 ;
375 [label="NumDots <= 0.05\ngini = 0.31\nsamples = 39\nvalue = [12, 51]\nclass = L", fillcolor="#68b4eb"] ;
374 -> 375 ;
376 [label="PctExtResourceUrls <= -0.26\ngini = 0.5\nsamples = 13\nvalue = [11, 10]\nclass = C", fillcolor="#fdf4ed"] ;
375 -> 376 ;
377 [label="PctNullSelfRedirectHyperlinks <= -0.02\ngini = 0.22\nsamples = 4\nvalue = [1, 7]\nclass = L", fillcolor="#55abe9"] ;
376 -> 377 ;
378 [label="RandomString <= -0.04\ngini = 0.38\nsamples = 3\nvalue = [1, 3]\nclass = L", fillcolor="#7bbeee"] ;
377 -> 378 ;
379 [label="PathLength <= -0.1\ngini = 0.5\nsamples = 2\nvalue = [1, 1]\nclass = C", fillcolor="#ffffff"] ;
378 -> 379 ;
380 [label="gini = 0.0\nsamples = 1\nvalue = [0, 1]\nclass = L", fillcolor="#399de5"] ;
379 -> 380 ;
381 [label="gini = 0.0\nsamples = 1\nvalue = [1, 0]\nclass = C", fillcolor="#e58139"] ;
379 -> 381 ;
382 [label="gini = 0.0\nsamples = 1\nvalue = [0, 2]\nclass = L", fillcolor="#399de5"] ;
378 -> 382 ;
383 [label="gini = 0.0\nsamples = 1\nvalue = [0, 4]\nclass = L", fillcolor="#399de5"] ;
377 -> 383 ;
384 [label="HostnameLength <= -0.04\ngini = 0.36\nsamples = 9\nvalue = [10, 3]\nclass = C", fillcolor="#eda774"] ;
376 -> 384 ;
385 [label="PctExtResourceUrls <= 0.16\ngini = 0.47\nsamples = 6\nvalue = [5, 3]\nclass = C", fillcolor="#f5cdb0"] ;
384 -> 385 ;
386 [label="gini = 0.0\nsamples = 3\nvalue = [4, 0]\nclass = C", fillcolor="#e58139"] ;
385 -> 386 ;
387 [label="NumDash <= 0.07\ngini = 0.38\nsamples = 3\nvalue = [1, 3]\nclass = L", fillcolor="#7bbeee"] ;
385 -> 387 ;
388 [label="PctExtNullSelfRedirectHyperlinksRT <= -0.36\ngini = 0.5\nsamples = 2\nvalue = [1, 1]\nclass = C", fillcolor="#ffffff"] ;
387 -> 388 ;
389 [label="gini = 0.0\nsamples = 1\nvalue = [0, 1]\nclass = L", fillcolor="#399de5"] ;
388 -> 389 ;
390 [label="gini = 0.0\nsamples = 1\nvalue = [1, 0]\nclass = C", fillcolor="#e58139"] ;
388 -> 390 ;
391 [label="gini = 0.0\nsamples = 1\nvalue = [0, 2]\nclass = L", fillcolor="#399de5"] ;
387 -> 391 ;
392 [label="gini = 0.0\nsamples = 3\nvalue = [5, 0]\nclass = C", fillcolor="#e58139"] ;
384 -> 392 ;
393 [label="NumDashInHostname <= 0.66\ngini = 0.05\nsamples = 26\nvalue = [1, 41]\nclass = L", fillcolor="#3e9fe6"] ;
375 -> 393 ;
394 [label="PctExtResourceUrls <= -0.59\ngini = 0.17\nsamples = 6\nvalue = [1, 10]\nclass = L", fillcolor="#4da7e8"] ;
393 -> 394 ;
395 [label="gini = 0.0\nsamples = 3\nvalue = [0, 6]\nclass = L", fillcolor="#399de5"] ;
394 -> 395 ;
396 [label="PathLevel <= 2.56\ngini = 0.32\nsamples = 3\nvalue = [1, 4]\nclass = L", fillcolor="#6ab6ec"] ;
394 -> 396 ;
397 [label="gini = 0.0\nsamples = 1\nvalue = [1, 0]\nclass = C", fillcolor="#e58139"] ;
396 -> 397 ;
398 [label="gini = 0.0\nsamples = 2\nvalue = [0, 4]\nclass = L", fillcolor="#399de5"] ;
396 -> 398 ;
399 [label="gini = 0.0\nsamples = 20\nvalue = [0, 31]\nclass = L", fillcolor="#399de5"] ;
393 -> 399 ;
400 [label="gini = 0.0\nsamples = 21\nvalue = [0, 34]\nclass = L", fillcolor="#399de5"] ;
374 -> 400 ;
401 [label="gini = 0.0\nsamples = 4\nvalue = [6, 0]\nclass = C", fillcolor="#e58139"] ;
371 -> 401 ;
402 [label="NumSensitiveWords <= 1.08\ngini = 0.19\nsamples = 19\nvalue = [26, 3]\nclass = C", fillcolor="#e89050"] ;
370 -> 402 ;
403 [label="gini = 0.0\nsamples = 16\nvalue = [26, 0]\nclass = C", fillcolor="#e58139"] ;
402 -> 403 ;
404 [label="gini = 0.0\nsamples = 3\nvalue = [0, 3]\nclass = L", fillcolor="#399de5"] ;
402 -> 404 ;
405 [label="PctExtResourceUrls <= -1.02\ngini = 0.44\nsamples = 1663\nvalue = [870, 1753]\nclass = L", fillcolor="#9bcef2"] ;
1 -> 405 ;
406 [label="NumSensitiveWords <= 1.08\ngini = 0.25\nsamples = 1033\nvalue = [242, 1396]\nclass = L", fillcolor="#5baeea"] ;
405 -> 406 ;
407 [label="QueryLength <= -0.23\ngini = 0.28\nsamples = 922\nvalue = [240, 1213]\nclass = L", fillcolor="#60b0ea"] ;
406 -> 407 ;
408 [label="NumUnderscore <= 0.16\ngini = 0.16\nsamples = 806\nvalue = [111, 1176]\nclass = L", fillcolor="#4ca6e7"] ;
407 -> 408 ;
409 [label="PathLength <= -1.34\ngini = 0.12\nsamples = 756\nvalue = [75, 1135]\nclass = L", fillcolor="#46a3e7"] ;
408 -> 409 ;
410 [label="UrlLength <= -1.01\ngini = 0.13\nsamples = 10\nvalue = [13, 1]\nclass = C", fillcolor="#e78b48"] ;
409 -> 410 ;
411 [label="gini = 0.0\nsamples = 8\nvalue = [12, 0]\nclass = C", fillcolor="#e58139"] ;
410 -> 411 ;
412 [label="IframeOrFrame <= 0.34\ngini = 0.5\nsamples = 2\nvalue = [1, 1]\nclass = C", fillcolor="#ffffff"] ;
410 -> 412 ;
413 [label="gini = 0.0\nsamples = 1\nvalue = [0, 1]\nclass = L", fillcolor="#399de5"] ;
412 -> 413 ;
414 [label="gini = 0.0\nsamples = 1\nvalue = [1, 0]\nclass = C", fillcolor="#e58139"] ;
412 -> 414 ;
415 [label="SubmitInfoToEmail <= 1.09\ngini = 0.1\nsamples = 746\nvalue = [62, 1134]\nclass = L", fillcolor="#44a2e6"] ;
409 -> 415 ;
416 [label="PathLevel <= -0.96\ngini = 0.06\nsamples = 729\nvalue = [39, 1128]\nclass = L", fillcolor="#40a0e6"] ;
415 -> 416 ;
417 [label="PctExtHyperlinks <= 0.4\ngini = 0.5\nsamples = 12\nvalue = [9, 8]\nclass = C", fillcolor="#fcf1e9"] ;
416 -> 417 ;
418 [label="UrlLength <= -1.24\ngini = 0.38\nsamples = 8\nvalue = [9, 3]\nclass = C", fillcolor="#eeab7b"] ;
417 -> 418 ;
419 [label="gini = 0.0\nsamples = 1\nvalue = [0, 1]\nclass = L", fillcolor="#399de5"] ;
418 -> 419 ;
420 [label="AbnormalExtFormActionR <= -0.56\ngini = 0.3\nsamples = 7\nvalue = [9, 2]\nclass = C", fillcolor="#eb9d65"] ;
418 -> 420 ;
421 [label="gini = 0.0\nsamples = 1\nvalue = [1, 0]\nclass = C", fillcolor="#e58139"] ;
420 -> 421 ;
422 [label="NumDashInHostname <= 0.66\ngini = 0.32\nsamples = 6\nvalue = [8, 2]\nclass = C", fillcolor="#eca06a"] ;
420 -> 422 ;
423 [label="InsecureForms <= -0.96\ngini = 0.2\nsamples = 5\nvalue = [8, 1]\nclass = C", fillcolor="#e89152"] ;
422 -> 423 ;
424 [label="gini = 0.0\nsamples = 4\nvalue = [8, 0]\nclass = C", fillcolor="#e58139"] ;
423 -> 424 ;
425 [label="gini = 0.0\nsamples = 1\nvalue = [0, 1]\nclass = L", fillcolor="#399de5"] ;
423 -> 425 ;
426 [label="gini = 0.0\nsamples = 1\nvalue = [0, 1]\nclass = L", fillcolor="#399de5"] ;
422 -> 426 ;
427 [label="gini = 0.0\nsamples = 4\nvalue = [0, 5]\nclass = L", fillcolor="#399de5"] ;
417 -> 427 ;
428 [label="PathLength <= 1.05\ngini = 0.05\nsamples = 717\nvalue = [30, 1120]\nclass = L", fillcolor="#3ea0e6"] ;
416 -> 428 ;
429 [label="HostnameLength <= -0.28\ngini = 0.03\nsamples = 688\nvalue = [19, 1083]\nclass = L", fillcolor="#3c9fe5"] ;
428 -> 429 ;
430 [label="AbnormalExtFormActionR <= -0.56\ngini = 0.06\nsamples = 254\nvalue = [12, 403]\nclass = L", fillcolor="#3fa0e6"] ;
429 -> 430 ;
431 [label="DomainInPaths <= 0.14\ngini = 0.47\nsamples = 6\nvalue = [3, 5]\nclass = L", fillcolor="#b0d8f5"] ;
430 -> 431 ;
432 [label="gini = 0.0\nsamples = 4\nvalue = [0, 5]\nclass = L", fillcolor="#399de5"] ;
431 -> 432 ;
433 [label="gini = 0.0\nsamples = 2\nvalue = [3, 0]\nclass = C", fillcolor="#e58139"] ;
431 -> 433 ;
434 [label="PathLength <= -0.93\ngini = 0.04\nsamples = 248\nvalue = [9, 398]\nclass = L", fillcolor="#3d9fe6"] ;
430 -> 434 ;
435 [label="RelativeFormAction <= 0.58\ngini = 0.17\nsamples = 20\nvalue = [3, 30]\nclass = L", fillcolor="#4da7e8"] ;
434 -> 435 ;
436 [label="PctExtHyperlinks <= -0.61\ngini = 0.18\nsamples = 18\nvalue = [3, 27]\nclass = L", fillcolor="#4fa8e8"] ;
435 -> 436 ;
437 [label="gini = 0.0\nsamples = 15\nvalue = [0, 24]\nclass = L", fillcolor="#399de5"] ;
436 -> 437 ;
438 [label="UrlLength <= -1.15\ngini = 0.5\nsamples = 3\nvalue = [3, 3]\nclass = C", fillcolor="#ffffff"] ;
436 -> 438 ;
439 [label="gini = 0.0\nsamples = 2\nvalue = [3, 0]\nclass = C", fillcolor="#e58139"] ;
438 -> 439 ;
440 [label="gini = 0.0\nsamples = 1\nvalue = [0, 3]\nclass = L", fillcolor="#399de5"] ;
438 -> 440 ;
441 [label="gini = 0.0\nsamples = 2\nvalue = [0, 3]\nclass = L", fillcolor="#399de5"] ;
435 -> 441 ;
442 [label="HostnameLength <= -0.4\ngini = 0.03\nsamples = 228\nvalue = [6, 368]\nclass = L", fillcolor="#3c9fe5"] ;
434 -> 442 ;
443 [label="PctExtHyperlinks <= -0.54\ngini = 0.02\nsamples = 195\nvalue = [3, 316]\nclass = L", fillcolor="#3b9ee5"] ;
442 -> 443 ;
444 [label="InsecureForms <= -0.96\ngini = 0.01\nsamples = 185\nvalue = [1, 306]\nclass = L", fillcolor="#3a9de5"] ;
443 -> 444 ;
445 [label="gini = 0.0\nsamples = 2\nvalue = [0, 3]\nclass = L", fillcolor="#399de5"] ;
444 -> 445 ;
446 [label="HostnameLength <= -0.77\ngini = 0.01\nsamples = 183\nvalue = [1, 303]\nclass = L", fillcolor="#3a9de5"] ;
444 -> 446 ;
447 [label="NumDots <= 0.05\ngini = 0.02\nsamples = 71\nvalue = [1, 120]\nclass = L", fillcolor="#3b9ee5"] ;
446 -> 447 ;
448 [label="gini = 0.0\nsamples = 59\nvalue = [0, 95]\nclass = L", fillcolor="#399de5"] ;
447 -> 448 ;
449 [label="PathLevel <= 0.12\ngini = 0.07\nsamples = 12\nvalue = [1, 25]\nclass = L", fillcolor="#41a1e6"] ;
447 -> 449 ;
450 [label="MissingTitle <= 2.58\ngini = 0.1\nsamples = 8\nvalue = [1, 17]\nclass = L", fillcolor="#45a3e7"] ;
449 -> 450 ;
451 [label="UrlLengthRT <= 0.58\ngini = 0.2\nsamples = 4\nvalue = [1, 8]\nclass = L", fillcolor="#52a9e8"] ;
450 -> 451 ;
452 [label="gini = 0.0\nsamples = 1\nvalue = [1, 0]\nclass = C", fillcolor="#e58139"] ;
451 -> 452 ;
453 [label="gini = 0.0\nsamples = 3\nvalue = [0, 8]\nclass = L", fillcolor="#399de5"] ;
451 -> 453 ;
454 [label="gini = 0.0\nsamples = 4\nvalue = [0, 9]\nclass = L", fillcolor="#399de5"] ;
450 -> 454 ;
455 [label="gini = 0.0\nsamples = 4\nvalue = [0, 8]\nclass = L", fillcolor="#399de5"] ;
449 -> 455 ;
456 [label="gini = 0.0\nsamples = 112\nvalue = [0, 183]\nclass = L", fillcolor="#399de5"] ;
446 -> 456 ;
457 [label="RandomString <= -0.04\ngini = 0.28\nsamples = 10\nvalue = [2, 10]\nclass = L", fillcolor="#61b1ea"] ;
443 -> 457 ;
458 [label="gini = 0.0\nsamples = 6\nvalue = [0, 8]\nclass = L", fillcolor="#399de5"] ;
457 -> 458 ;
459 [label="HostnameLength <= -0.53\ngini = 0.5\nsamples = 4\nvalue = [2, 2]\nclass = C", fillcolor="#ffffff"] ;
457 -> 459 ;
460 [label="UrlLengthRT <= 0.58\ngini = 0.44\nsamples = 3\nvalue = [1, 2]\nclass = L", fillcolor="#9ccef2"] ;
459 -> 460 ;
461 [label="PathLength <= 0.41\ngini = 0.5\nsamples = 2\nvalue = [1, 1]\nclass = C", fillcolor="#ffffff"] ;
460 -> 461 ;
462 [label="gini = 0.0\nsamples = 1\nvalue = [0, 1]\nclass = L", fillcolor="#399de5"] ;
461 -> 462 ;
463 [label="gini = 0.0\nsamples = 1\nvalue = [1, 0]\nclass = C", fillcolor="#e58139"] ;
461 -> 463 ;
464 [label="gini = 0.0\nsamples = 1\nvalue = [0, 1]\nclass = L", fillcolor="#399de5"] ;
460 -> 464 ;
465 [label="gini = 0.0\nsamples = 1\nvalue = [1, 0]\nclass = C", fillcolor="#e58139"] ;
459 -> 465 ;
466 [label="PathLength <= 0.07\ngini = 0.1\nsamples = 33\nvalue = [3, 52]\nclass = L", fillcolor="#44a3e6"] ;
442 -> 466 ;
467 [label="NumDots <= -0.71\ngini = 0.05\nsamples = 25\nvalue = [1, 41]\nclass = L", fillcolor="#3e9fe6"] ;
466 -> 467 ;
468 [label="NumDashInHostname <= 0.66\ngini = 0.38\nsamples = 3\nvalue = [1, 3]\nclass = L", fillcolor="#7bbeee"] ;
467 -> 468 ;
469 [label="gini = 0.0\nsamples = 2\nvalue = [0, 3]\nclass = L", fillcolor="#399de5"] ;
468 -> 469 ;
470 [label="gini = 0.0\nsamples = 1\nvalue = [1, 0]\nclass = C", fillcolor="#e58139"] ;
468 -> 470 ;
471 [label="gini = 0.0\nsamples = 22\nvalue = [0, 38]\nclass = L", fillcolor="#399de5"] ;
467 -> 471 ;
472 [label="PctExtHyperlinks <= -0.68\ngini = 0.26\nsamples = 8\nvalue = [2, 11]\nclass = L", fillcolor="#5dafea"] ;
466 -> 472 ;
473 [label="gini = 0.0\nsamples = 6\nvalue = [0, 9]\nclass = L", fillcolor="#399de5"] ;
472 -> 473 ;
474 [label="IframeOrFrame <= 0.34\ngini = 0.5\nsamples = 2\nvalue = [2, 2]\nclass = C", fillcolor="#ffffff"] ;
472 -> 474 ;
475 [label="gini = 0.0\nsamples = 1\nvalue = [2, 0]\nclass = C", fillcolor="#e58139"] ;
474 -> 475 ;
476 [label="gini = 0.0\nsamples = 1\nvalue = [0, 2]\nclass = L", fillcolor="#399de5"] ;
474 -> 476 ;
477 [label="PctExtHyperlinks <= -0.69\ngini = 0.02\nsamples = 434\nvalue = [7, 680]\nclass = L", fillcolor="#3b9ee5"] ;
429 -> 477 ;
478 [label="UrlLengthRT <= 0.58\ngini = 0.01\nsamples = 415\nvalue = [2, 652]\nclass = L", fillcolor="#3a9de5"] ;
477 -> 478 ;
479 [label="gini = 0.0\nsamples = 267\nvalue = [0, 426]\nclass = L", fillcolor="#399de5"] ;
478 -> 479 ;
480 [label="InsecureForms <= -0.96\ngini = 0.02\nsamples = 148\nvalue = [2, 226]\nclass = L", fillcolor="#3b9ee5"] ;
478 -> 480 ;
481 [label="NumNumericChars <= -0.5\ngini = 0.23\nsamples = 12\nvalue = [2, 13]\nclass = L", fillcolor="#57ace9"] ;
480 -> 481 ;
482 [label="gini = 0.0\nsamples = 9\nvalue = [0, 12]\nclass = L", fillcolor="#399de5"] ;
481 -> 482 ;
483 [label="NumDots <= 0.05\ngini = 0.44\nsamples = 3\nvalue = [2, 1]\nclass = C", fillcolor="#f2c09c"] ;
481 -> 483 ;
484 [label="gini = 0.0\nsamples = 1\nvalue = [1, 0]\nclass = C", fillcolor="#e58139"] ;
483 -> 484 ;
485 [label="NumDash <= -0.27\ngini = 0.5\nsamples = 2\nvalue = [1, 1]\nclass = C", fillcolor="#ffffff"] ;
483 -> 485 ;
486 [label="gini = 0.0\nsamples = 1\nvalue = [1, 0]\nclass = C", fillcolor="#e58139"] ;
485 -> 486 ;
487 [label="gini = 0.0\nsamples = 1\nvalue = [0, 1]\nclass = L", fillcolor="#399de5"] ;
485 -> 487 ;
488 [label="gini = 0.0\nsamples = 136\nvalue = [0, 213]\nclass = L", fillcolor="#399de5"] ;
480 -> 488 ;
489 [label="PctNullSelfRedirectHyperlinks <= 0.34\ngini = 0.26\nsamples = 19\nvalue = [5, 28]\nclass = L", fillcolor="#5caeea"] ;
477 -> 489 ;
490 [label="HostnameLength <= 0.32\ngini = 0.42\nsamples = 10\nvalue = [5, 12]\nclass = L", fillcolor="#8bc6f0"] ;
489 -> 490 ;
491 [label="gini = 0.0\nsamples = 6\nvalue = [0, 11]\nclass = L", fillcolor="#399de5"] ;
490 -> 491 ;
492 [label="NumNumericChars <= -0.45\ngini = 0.28\nsamples = 4\nvalue = [5, 1]\nclass = C", fillcolor="#ea9a61"] ;
490 -> 492 ;
493 [label="NumDots <= 0.05\ngini = 0.44\nsamples = 3\nvalue = [2, 1]\nclass = C", fillcolor="#f2c09c"] ;
492 -> 493 ;
494 [label="gini = 0.0\nsamples = 2\nvalue = [2, 0]\nclass = C", fillcolor="#e58139"] ;
493 -> 494 ;
495 [label="gini = 0.0\nsamples = 1\nvalue = [0, 1]\nclass = L", fillcolor="#399de5"] ;
493 -> 495 ;
496 [label="gini = 0.0\nsamples = 1\nvalue = [3, 0]\nclass = C", fillcolor="#e58139"] ;
492 -> 496 ;
497 [label="gini = 0.0\nsamples = 9\nvalue = [0, 16]\nclass = L", fillcolor="#399de5"] ;
489 -> 497 ;
498 [label="PctNullSelfRedirectHyperlinks <= -0.4\ngini = 0.35\nsamples = 29\nvalue = [11, 37]\nclass = L", fillcolor="#74baed"] ;
428 -> 498 ;
499 [label="PctExtNullSelfRedirectHyperlinksRT <= -0.36\ngini = 0.2\nsamples = 19\nvalue = [4, 31]\nclass = L", fillcolor="#53aae8"] ;
498 -> 499 ;
500 [label="gini = 0.0\nsamples = 3\nvalue = [0, 8]\nclass = L", fillcolor="#399de5"] ;
499 -> 500 ;
501 [label="NumDots <= 0.81\ngini = 0.25\nsamples = 16\nvalue = [4, 23]\nclass = L", fillcolor="#5baeea"] ;
499 -> 501 ;
502 [label="gini = 0.0\nsamples = 12\nvalue = [0, 19]\nclass = L", fillcolor="#399de5"] ;
501 -> 502 ;
503 [label="NumDots <= 2.71\ngini = 0.5\nsamples = 4\nvalue = [4, 4]\nclass = C", fillcolor="#ffffff"] ;
501 -> 503 ;
504 [label="HostnameLength <= -0.65\ngini = 0.49\nsamples = 3\nvalue = [3, 4]\nclass = L", fillcolor="#cee6f8"] ;
503 -> 504 ;
505 [label="gini = 0.0\nsamples = 1\nvalue = [3, 0]\nclass = C", fillcolor="#e58139"] ;
504 -> 505 ;
506 [label="gini = 0.0\nsamples = 2\nvalue = [0, 4]\nclass = L", fillcolor="#399de5"] ;
504 -> 506 ;
507 [label="gini = 0.0\nsamples = 1\nvalue = [1, 0]\nclass = C", fillcolor="#e58139"] ;
503 -> 507 ;
508 [label="PctNullSelfRedirectHyperlinks <= 1.95\ngini = 0.5\nsamples = 10\nvalue = [7, 6]\nclass = C", fillcolor="#fbede3"] ;
498 -> 508 ;
509 [label="gini = 0.0\nsamples = 6\nvalue = [7, 0]\nclass = C", fillcolor="#e58139"] ;
508 -> 509 ;
510 [label="gini = 0.0\nsamples = 4\nvalue = [0, 6]\nclass = L", fillcolor="#399de5"] ;
508 -> 510 ;
511 [label="HostnameLength <= 0.75\ngini = 0.33\nsamples = 17\nvalue = [23, 6]\nclass = C", fillcolor="#eca26d"] ;
415 -> 511 ;
512 [label="gini = 0.0\nsamples = 13\nvalue = [23, 0]\nclass = C", fillcolor="#e58139"] ;
511 -> 512 ;
513 [label="gini = 0.0\nsamples = 4\nvalue = [0, 6]\nclass = L", fillcolor="#399de5"] ;
511 -> 513 ;
514 [label="NumUnderscore <= 1.94\ngini = 0.5\nsamples = 50\nvalue = [36, 41]\nclass = L", fillcolor="#e7f3fc"] ;
408 -> 514 ;
515 [label="PctExtHyperlinks <= -0.67\ngini = 0.48\nsamples = 46\nvalue = [28, 41]\nclass = L", fillcolor="#c0e0f7"] ;
514 -> 515 ;
516 [label="HostnameLength <= 0.08\ngini = 0.33\nsamples = 33\nvalue = [10, 38]\nclass = L", fillcolor="#6db7ec"] ;
515 -> 516 ;
517 [label="NumNumericChars <= 1.4\ngini = 0.49\nsamples = 15\nvalue = [8, 11]\nclass = L", fillcolor="#c9e4f8"] ;
516 -> 517 ;
518 [label="NumDots <= 0.05\ngini = 0.5\nsamples = 13\nvalue = [8, 7]\nclass = C", fillcolor="#fcefe6"] ;
517 -> 518 ;
519 [label="gini = 0.0\nsamples = 6\nvalue = [0, 6]\nclass = L", fillcolor="#399de5"] ;
518 -> 519 ;
520 [label="HostnameLength <= -0.1\ngini = 0.2\nsamples = 7\nvalue = [8, 1]\nclass = C", fillcolor="#e89152"] ;
518 -> 520 ;
521 [label="gini = 0.0\nsamples = 5\nvalue = [6, 0]\nclass = C", fillcolor="#e58139"] ;
520 -> 521 ;
522 [label="UrlLength <= -0.39\ngini = 0.44\nsamples = 2\nvalue = [2, 1]\nclass = C", fillcolor="#f2c09c"] ;
520 -> 522 ;
523 [label="gini = 0.0\nsamples = 1\nvalue = [0, 1]\nclass = L", fillcolor="#399de5"] ;
522 -> 523 ;
524 [label="gini = 0.0\nsamples = 1\nvalue = [2, 0]\nclass = C", fillcolor="#e58139"] ;
522 -> 524 ;
525 [label="gini = 0.0\nsamples = 2\nvalue = [0, 4]\nclass = L", fillcolor="#399de5"] ;
517 -> 525 ;
526 [label="PathLevel <= 0.12\ngini = 0.13\nsamples = 18\nvalue = [2, 27]\nclass = L", fillcolor="#48a4e7"] ;
516 -> 526 ;
527 [label="NumDash <= 1.22\ngini = 0.38\nsamples = 5\nvalue = [2, 6]\nclass = L", fillcolor="#7bbeee"] ;
526 -> 527 ;
528 [label="gini = 0.0\nsamples = 4\nvalue = [0, 6]\nclass = L", fillcolor="#399de5"] ;
527 -> 528 ;
529 [label="gini = 0.0\nsamples = 1\nvalue = [2, 0]\nclass = C", fillcolor="#e58139"] ;
527 -> 529 ;
530 [label="gini = 0.0\nsamples = 13\nvalue = [0, 21]\nclass = L", fillcolor="#399de5"] ;
526 -> 530 ;
531 [label="PathLevel <= 2.29\ngini = 0.24\nsamples = 13\nvalue = [18, 3]\nclass = C", fillcolor="#e9965a"] ;
515 -> 531 ;
532 [label="gini = 0.0\nsamples = 11\nvalue = [17, 0]\nclass = C", fillcolor="#e58139"] ;
531 -> 532 ;
533 [label="PctExtHyperlinks <= 0.11\ngini = 0.38\nsamples = 2\nvalue = [1, 3]\nclass = L", fillcolor="#7bbeee"] ;
531 -> 533 ;
534 [label="gini = 0.0\nsamples = 1\nvalue = [1, 0]\nclass = C", fillcolor="#e58139"] ;
533 -> 534 ;
535 [label="gini = 0.0\nsamples = 1\nvalue = [0, 3]\nclass = L", fillcolor="#399de5"] ;
533 -> 535 ;
536 [label="gini = 0.0\nsamples = 4\nvalue = [8, 0]\nclass = C", fillcolor="#e58139"] ;
514 -> 536 ;
537 [label="NumNumericChars <= 1.72\ngini = 0.35\nsamples = 116\nvalue = [129, 37]\nclass = C", fillcolor="#eca572"] ;
407 -> 537 ;
538 [label="HostnameLength <= -0.89\ngini = 0.26\nsamples = 106\nvalue = [128, 23]\nclass = C", fillcolor="#ea985d"] ;
537 -> 538 ;
539 [label="NumDash <= -0.43\ngini = 0.49\nsamples = 21\nvalue = [16, 13]\nclass = C", fillcolor="#fae7da"] ;
538 -> 539 ;
540 [label="QueryLength <= 5.24\ngini = 0.12\nsamples = 13\nvalue = [15, 1]\nclass = C", fillcolor="#e78946"] ;
539 -> 540 ;
541 [label="gini = 0.0\nsamples = 12\nvalue = [15, 0]\nclass = C", fillcolor="#e58139"] ;
540 -> 541 ;
542 [label="gini = 0.0\nsamples = 1\nvalue = [0, 1]\nclass = L", fillcolor="#399de5"] ;
540 -> 542 ;
543 [label="NumNumericChars <= -0.19\ngini = 0.14\nsamples = 8\nvalue = [1, 12]\nclass = L", fillcolor="#49a5e7"] ;
539 -> 543 ;
544 [label="gini = 0.0\nsamples = 7\nvalue = [0, 12]\nclass = L", fillcolor="#399de5"] ;
543 -> 544 ;
545 [label="gini = 0.0\nsamples = 1\nvalue = [1, 0]\nclass = C", fillcolor="#e58139"] ;
543 -> 545 ;
546 [label="NoHttps <= -4.83\ngini = 0.15\nsamples = 85\nvalue = [112, 10]\nclass = C", fillcolor="#e78c4b"] ;
538 -> 546 ;
547 [label="gini = 0.0\nsamples = 1\nvalue = [0, 1]\nclass = L", fillcolor="#399de5"] ;
546 -> 547 ;
548 [label="MissingTitle <= 2.58\ngini = 0.14\nsamples = 84\nvalue = [112, 9]\nclass = C", fillcolor="#e78b49"] ;
546 -> 548 ;
549 [label="SubdomainLevelRT <= -5.92\ngini = 0.15\nsamples = 77\nvalue = [102, 9]\nclass = C", fillcolor="#e78c4a"] ;
548 -> 549 ;
550 [label="gini = 0.0\nsamples = 3\nvalue = [0, 4]\nclass = L", fillcolor="#399de5"] ;
549 -> 550 ;
551 [label="NumDash <= -0.1\ngini = 0.09\nsamples = 74\nvalue = [102, 5]\nclass = C", fillcolor="#e68743"] ;
549 -> 551 ;
552 [label="PctExtHyperlinks <= -0.7\ngini = 0.1\nsamples = 64\nvalue = [85, 5]\nclass = C", fillcolor="#e78845"] ;
551 -> 552 ;
553 [label="QueryLength <= 1.67\ngini = 0.21\nsamples = 20\nvalue = [30, 4]\nclass = C", fillcolor="#e89253"] ;
552 -> 553 ;
554 [label="IframeOrFrame <= 0.34\ngini = 0.29\nsamples = 15\nvalue = [19, 4]\nclass = C", fillcolor="#ea9c63"] ;
553 -> 554 ;
555 [label="NumQueryComponents <= 0.79\ngini = 0.17\nsamples = 14\nvalue = [19, 2]\nclass = C", fillcolor="#e88e4e"] ;
554 -> 555 ;
556 [label="gini = 0.0\nsamples = 8\nvalue = [11, 0]\nclass = C", fillcolor="#e58139"] ;
555 -> 556 ;
557 [label="NumUnderscore <= 2.39\ngini = 0.32\nsamples = 6\nvalue = [8, 2]\nclass = C", fillcolor="#eca06a"] ;
555 -> 557 ;
558 [label="PathLevel <= -0.96\ngini = 0.2\nsamples = 5\nvalue = [8, 1]\nclass = C", fillcolor="#e89152"] ;
557 -> 558 ;
559 [label="gini = 0.0\nsamples = 3\nvalue = [5, 0]\nclass = C", fillcolor="#e58139"] ;
558 -> 559 ;
560 [label="NumQueryComponents <= 3.43\ngini = 0.38\nsamples = 2\nvalue = [3, 1]\nclass = C", fillcolor="#eeab7b"] ;
558 -> 560 ;
561 [label="gini = 0.0\nsamples = 1\nvalue = [0, 1]\nclass = L", fillcolor="#399de5"] ;
560 -> 561 ;
562 [label="gini = 0.0\nsamples = 1\nvalue = [3, 0]\nclass = C", fillcolor="#e58139"] ;
560 -> 562 ;
563 [label="gini = 0.0\nsamples = 1\nvalue = [0, 1]\nclass = L", fillcolor="#399de5"] ;
557 -> 563 ;
564 [label="gini = 0.0\nsamples = 1\nvalue = [0, 2]\nclass = L", fillcolor="#399de5"] ;
554 -> 564 ;
565 [label="gini = 0.0\nsamples = 5\nvalue = [11, 0]\nclass = C", fillcolor="#e58139"] ;
553 -> 565 ;
566 [label="NumDash <= -0.43\ngini = 0.04\nsamples = 44\nvalue = [55, 1]\nclass = C", fillcolor="#e5833d"] ;
552 -> 566 ;
567 [label="PctExtNullSelfRedirectHyperlinksRT <= 0.2\ngini = 0.05\nsamples = 34\nvalue = [41, 1]\nclass = C", fillcolor="#e6843e"] ;
566 -> 567 ;
568 [label="PathLevel <= -0.42\ngini = 0.22\nsamples = 5\nvalue = [7, 1]\nclass = C", fillcolor="#e99355"] ;
567 -> 568 ;
569 [label="gini = 0.0\nsamples = 3\nvalue = [6, 0]\nclass = C", fillcolor="#e58139"] ;
568 -> 569 ;
570 [label="NumUnderscore <= 1.05\ngini = 0.5\nsamples = 2\nvalue = [1, 1]\nclass = C", fillcolor="#ffffff"] ;
568 -> 570 ;
571 [label="gini = 0.0\nsamples = 1\nvalue = [0, 1]\nclass = L", fillcolor="#399de5"] ;
570 -> 571 ;
572 [label="gini = 0.0\nsamples = 1\nvalue = [1, 0]\nclass = C", fillcolor="#e58139"] ;
570 -> 572 ;
573 [label="gini = 0.0\nsamples = 29\nvalue = [34, 0]\nclass = C", fillcolor="#e58139"] ;
567 -> 573 ;
574 [label="gini = 0.0\nsamples = 10\nvalue = [14, 0]\nclass = C", fillcolor="#e58139"] ;
566 -> 574 ;
575 [label="gini = 0.0\nsamples = 10\nvalue = [17, 0]\nclass = C", fillcolor="#e58139"] ;
551 -> 575 ;
576 [label="gini = 0.0\nsamples = 7\nvalue = [10, 0]\nclass = C", fillcolor="#e58139"] ;
548 -> 576 ;
577 [label="RelativeFormAction <= 0.58\ngini = 0.12\nsamples = 10\nvalue = [1, 14]\nclass = L", fillcolor="#47a4e7"] ;
537 -> 577 ;
578 [label="SubdomainLevel <= -0.12\ngini = 0.2\nsamples = 6\nvalue = [1, 8]\nclass = L", fillcolor="#52a9e8"] ;
577 -> 578 ;
579 [label="PathLevel <= 0.66\ngini = 0.28\nsamples = 4\nvalue = [1, 5]\nclass = L", fillcolor="#61b1ea"] ;
578 -> 579 ;
580 [label="NumUnderscore <= 1.05\ngini = 0.38\nsamples = 2\nvalue = [1, 3]\nclass = L", fillcolor="#7bbeee"] ;
579 -> 580 ;
581 [label="gini = 0.0\nsamples = 1\nvalue = [0, 3]\nclass = L", fillcolor="#399de5"] ;
580 -> 581 ;
582 [label="gini = 0.0\nsamples = 1\nvalue = [1, 0]\nclass = C", fillcolor="#e58139"] ;
580 -> 582 ;
583 [label="gini = 0.0\nsamples = 2\nvalue = [0, 2]\nclass = L", fillcolor="#399de5"] ;
579 -> 583 ;
584 [label="gini = 0.0\nsamples = 2\nvalue = [0, 3]\nclass = L", fillcolor="#399de5"] ;
578 -> 584 ;
585 [label="gini = 0.0\nsamples = 4\nvalue = [0, 6]\nclass = L", fillcolor="#399de5"] ;
577 -> 585 ;
586 [label="NumQueryComponents <= 2.3\ngini = 0.02\nsamples = 111\nvalue = [2, 183]\nclass = L", fillcolor="#3b9ee5"] ;
406 -> 586 ;
587 [label="gini = 0.0\nsamples = 108\nvalue = [0, 179]\nclass = L", fillcolor="#399de5"] ;
586 -> 587 ;
588 [label="QueryLength <= 4.49\ngini = 0.44\nsamples = 3\nvalue = [2, 4]\nclass = L", fillcolor="#9ccef2"] ;
586 -> 588 ;
589 [label="gini = 0.0\nsamples = 1\nvalue = [0, 3]\nclass = L", fillcolor="#399de5"] ;
588 -> 589 ;
590 [label="RandomString <= -0.04\ngini = 0.44\nsamples = 2\nvalue = [2, 1]\nclass = C", fillcolor="#f2c09c"] ;
588 -> 590 ;
591 [label="gini = 0.0\nsamples = 1\nvalue = [2, 0]\nclass = C", fillcolor="#e58139"] ;
590 -> 591 ;
592 [label="gini = 0.0\nsamples = 1\nvalue = [0, 1]\nclass = L", fillcolor="#399de5"] ;
590 -> 592 ;
593 [label="NumQueryComponents <= 0.03\ngini = 0.46\nsamples = 630\nvalue = [628, 357]\nclass = C", fillcolor="#f4c9aa"] ;
405 -> 593 ;
594 [label="RightClickDisabled <= 4.06\ngini = 0.5\nsamples = 473\nvalue = [398, 340]\nclass = C", fillcolor="#fbede2"] ;
593 -> 594 ;
595 [label="NumDash <= -0.1\ngini = 0.47\nsamples = 418\nvalue = [396, 249]\nclass = C", fillcolor="#f5d0b5"] ;
594 -> 595 ;
596 [label="ExtFavicon <= 0.91\ngini = 0.5\nsamples = 302\nvalue = [228, 236]\nclass = L", fillcolor="#f8fcfe"] ;
595 -> 596 ;
597 [label="PctExtResourceUrls <= -0.83\ngini = 0.49\nsamples = 257\nvalue = [227, 167]\nclass = C", fillcolor="#f8decb"] ;
596 -> 597 ;
598 [label="NumNumericChars <= -0.5\ngini = 0.14\nsamples = 63\nvalue = [85, 7]\nclass = C", fillcolor="#e78b49"] ;
597 -> 598 ;
599 [label="PctExtHyperlinks <= 0.65\ngini = 0.23\nsamples = 35\nvalue = [46, 7]\nclass = C", fillcolor="#e99457"] ;
598 -> 599 ;
600 [label="NumDots <= 0.05\ngini = 0.08\nsamples = 31\nvalue = [44, 2]\nclass = C", fillcolor="#e68742"] ;
599 -> 600 ;
601 [label="AbnormalExtFormActionR <= -0.56\ngini = 0.11\nsamples = 23\nvalue = [32, 2]\nclass = C", fillcolor="#e78945"] ;
600 -> 601 ;
602 [label="gini = 0.0\nsamples = 2\nvalue = [2, 0]\nclass = C", fillcolor="#e58139"] ;
601 -> 602 ;
603 [label="PctExtNullSelfRedirectHyperlinksRT <= -0.92\ngini = 0.12\nsamples = 21\nvalue = [30, 2]\nclass = C", fillcolor="#e78946"] ;
601 -> 603 ;
604 [label="gini = 0.0\nsamples = 2\nvalue = [0, 2]\nclass = L", fillcolor="#399de5"] ;
603 -> 604 ;
605 [label="gini = 0.0\nsamples = 19\nvalue = [30, 0]\nclass = C", fillcolor="#e58139"] ;
603 -> 605 ;
606 [label="gini = 0.0\nsamples = 8\nvalue = [12, 0]\nclass = C", fillcolor="#e58139"] ;
600 -> 606 ;
607 [label="SubdomainLevel <= -0.12\ngini = 0.41\nsamples = 4\nvalue = [2, 5]\nclass = L", fillcolor="#88c4ef"] ;
599 -> 607 ;
608 [label="gini = 0.0\nsamples = 1\nvalue = [0, 2]\nclass = L", fillcolor="#399de5"] ;
607 -> 608 ;
609 [label="TildeSymbol <= 4.34\ngini = 0.48\nsamples = 3\nvalue = [2, 3]\nclass = L", fillcolor="#bddef6"] ;
607 -> 609 ;
610 [label="PathLevel <= -1.23\ngini = 0.5\nsamples = 2\nvalue = [2, 2]\nclass = C", fillcolor="#ffffff"] ;
609 -> 610 ;
611 [label="gini = 0.0\nsamples = 1\nvalue = [2, 0]\nclass = C", fillcolor="#e58139"] ;
610 -> 611 ;
612 [label="gini = 0.0\nsamples = 1\nvalue = [0, 2]\nclass = L", fillcolor="#399de5"] ;
610 -> 612 ;
613 [label="gini = 0.0\nsamples = 1\nvalue = [0, 1]\nclass = L", fillcolor="#399de5"] ;
609 -> 613 ;
614 [label="gini = 0.0\nsamples = 28\nvalue = [39, 0]\nclass = C", fillcolor="#e58139"] ;
598 -> 614 ;
615 [label="PathLevel <= -0.96\ngini = 0.5\nsamples = 194\nvalue = [142, 160]\nclass = L", fillcolor="#e9f4fc"] ;
597 -> 615 ;
616 [label="NumDots <= 1.57\ngini = 0.19\nsamples = 16\nvalue = [25, 3]\nclass = C", fillcolor="#e89051"] ;
615 -> 616 ;
617 [label="PctExtNullSelfRedirectHyperlinksRT <= -0.92\ngini = 0.07\nsamples = 15\nvalue = [25, 1]\nclass = C", fillcolor="#e68641"] ;
616 -> 617 ;
618 [label="gini = 0.0\nsamples = 1\nvalue = [0, 1]\nclass = L", fillcolor="#399de5"] ;
617 -> 618 ;
619 [label="gini = 0.0\nsamples = 14\nvalue = [25, 0]\nclass = C", fillcolor="#e58139"] ;
617 -> 619 ;
620 [label="gini = 0.0\nsamples = 1\nvalue = [0, 2]\nclass = L", fillcolor="#399de5"] ;
616 -> 620 ;
621 [label="HostnameLength <= -0.28\ngini = 0.49\nsamples = 178\nvalue = [117, 157]\nclass = L", fillcolor="#cde6f8"] ;
615 -> 621 ;
622 [label="AbnormalExtFormActionR <= -0.56\ngini = 0.49\nsamples = 78\nvalue = [73, 54]\nclass = C", fillcolor="#f8decb"] ;
621 -> 622 ;
623 [label="PctExtHyperlinks <= -0.69\ngini = 0.09\nsamples = 16\nvalue = [21, 1]\nclass = C", fillcolor="#e68742"] ;
622 -> 623 ;
624 [label="SubdomainLevel <= -0.12\ngini = 0.5\nsamples = 2\nvalue = [1, 1]\nclass = C", fillcolor="#ffffff"] ;
623 -> 624 ;
625 [label="gini = 0.0\nsamples = 1\nvalue = [1, 0]\nclass = C", fillcolor="#e58139"] ;
624 -> 625 ;
626 [label="gini = 0.0\nsamples = 1\nvalue = [0, 1]\nclass = L", fillcolor="#399de5"] ;
624 -> 626 ;
627 [label="gini = 0.0\nsamples = 14\nvalue = [20, 0]\nclass = C", fillcolor="#e58139"] ;
623 -> 627 ;
628 [label="SubdomainLevel <= -0.12\ngini = 0.5\nsamples = 62\nvalue = [52, 53]\nclass = L", fillcolor="#fbfdff"] ;
622 -> 628 ;
629 [label="HostnameLength <= -0.89\ngini = 0.46\nsamples = 38\nvalue = [24, 42]\nclass = L", fillcolor="#aad5f4"] ;
628 -> 629 ;
630 [label="DomainInPaths <= 0.14\ngini = 0.42\nsamples = 11\nvalue = [14, 6]\nclass = C", fillcolor="#f0b78e"] ;
629 -> 630 ;
631 [label="UrlLength <= -0.87\ngini = 0.5\nsamples = 8\nvalue = [6, 6]\nclass = C", fillcolor="#ffffff"] ;
630 -> 631 ;
632 [label="PctExtResourceUrls <= -0.65\ngini = 0.38\nsamples = 5\nvalue = [6, 2]\nclass = C", fillcolor="#eeab7b"] ;
631 -> 632 ;
633 [label="gini = 0.0\nsamples = 4\nvalue = [6, 0]\nclass = C", fillcolor="#e58139"] ;
632 -> 633 ;
634 [label="gini = 0.0\nsamples = 1\nvalue = [0, 2]\nclass = L", fillcolor="#399de5"] ;
632 -> 634 ;
635 [label="gini = 0.0\nsamples = 3\nvalue = [0, 4]\nclass = L", fillcolor="#399de5"] ;
631 -> 635 ;
636 [label="gini = 0.0\nsamples = 3\nvalue = [8, 0]\nclass = C", fillcolor="#e58139"] ;
630 -> 636 ;
637 [label="NumPercent <= 0.7\ngini = 0.34\nsamples = 27\nvalue = [10, 36]\nclass = L", fillcolor="#70b8ec"] ;
629 -> 637 ;
638 [label="HostnameLength <= -0.4\ngini = 0.36\nsamples = 23\nvalue = [10, 32]\nclass = L", fillcolor="#77bced"] ;
637 -> 638 ;
639 [label="PctExtResourceUrls <= -0.56\ngini = 0.27\nsamples = 20\nvalue = [6, 32]\nclass = L", fillcolor="#5eafea"] ;
638 -> 639 ;
640 [label="DomainInPaths <= 0.14\ngini = 0.06\nsamples = 18\nvalue = [1, 32]\nclass = L", fillcolor="#3fa0e6"] ;
639 -> 640 ;
641 [label="PctNullSelfRedirectHyperlinks <= -0.03\ngini = 0.08\nsamples = 12\nvalue = [1, 22]\nclass = L", fillcolor="#42a1e6"] ;
640 -> 641 ;
642 [label="PctNullSelfRedirectHyperlinks <= -0.35\ngini = 0.2\nsamples = 4\nvalue = [1, 8]\nclass = L", fillcolor="#52a9e8"] ;
641 -> 642 ;
643 [label="gini = 0.0\nsamples = 3\nvalue = [0, 8]\nclass = L", fillcolor="#399de5"] ;
642 -> 643 ;
644 [label="gini = 0.0\nsamples = 1\nvalue = [1, 0]\nclass = C", fillcolor="#e58139"] ;
642 -> 644 ;
645 [label="gini = 0.0\nsamples = 8\nvalue = [0, 14]\nclass = L", fillcolor="#399de5"] ;
641 -> 645 ;
646 [label="gini = 0.0\nsamples = 6\nvalue = [0, 10]\nclass = L", fillcolor="#399de5"] ;
640 -> 646 ;
647 [label="gini = 0.0\nsamples = 2\nvalue = [5, 0]\nclass = C", fillcolor="#e58139"] ;
639 -> 647 ;
648 [label="gini = 0.0\nsamples = 3\nvalue = [4, 0]\nclass = C", fillcolor="#e58139"] ;
638 -> 648 ;
649 [label="gini = 0.0\nsamples = 4\nvalue = [0, 4]\nclass = L", fillcolor="#399de5"] ;
637 -> 649 ;
650 [label="NumNumericChars <= -0.45\ngini = 0.4\nsamples = 24\nvalue = [28, 11]\nclass = C", fillcolor="#efb287"] ;
628 -> 650 ;
651 [label="NumDash <= -0.43\ngini = 0.49\nsamples = 12\nvalue = [8, 10]\nclass = L", fillcolor="#d7ebfa"] ;
650 -> 651 ;
652 [label="SubmitInfoToEmail <= 1.09\ngini = 0.38\nsamples = 7\nvalue = [3, 9]\nclass = L", fillcolor="#7bbeee"] ;
651 -> 652 ;
653 [label="UrlLength <= -0.71\ngini = 0.18\nsamples = 5\nvalue = [1, 9]\nclass = L", fillcolor="#4fa8e8"] ;
652 -> 653 ;
654 [label="gini = 0.0\nsamples = 4\nvalue = [0, 9]\nclass = L", fillcolor="#399de5"] ;
653 -> 654 ;
655 [label="gini = 0.0\nsamples = 1\nvalue = [1, 0]\nclass = C", fillcolor="#e58139"] ;
653 -> 655 ;
656 [label="gini = 0.0\nsamples = 2\nvalue = [2, 0]\nclass = C", fillcolor="#e58139"] ;
652 -> 656 ;
657 [label="UrlLengthRT <= -0.64\ngini = 0.28\nsamples = 5\nvalue = [5, 1]\nclass = C", fillcolor="#ea9a61"] ;
651 -> 657 ;
658 [label="gini = 0.0\nsamples = 1\nvalue = [0, 1]\nclass = L", fillcolor="#399de5"] ;
657 -> 658 ;
659 [label="gini = 0.0\nsamples = 4\nvalue = [5, 0]\nclass = C", fillcolor="#e58139"] ;
657 -> 659 ;
660 [label="PctExtHyperlinks <= -0.52\ngini = 0.09\nsamples = 12\nvalue = [20, 1]\nclass = C", fillcolor="#e68743"] ;
650 -> 660 ;
661 [label="HostnameLength <= -0.47\ngini = 0.28\nsamples = 4\nvalue = [5, 1]\nclass = C", fillcolor="#ea9a61"] ;
660 -> 661 ;
662 [label="gini = 0.0\nsamples = 3\nvalue = [5, 0]\nclass = C", fillcolor="#e58139"] ;
661 -> 662 ;
663 [label="gini = 0.0\nsamples = 1\nvalue = [0, 1]\nclass = L", fillcolor="#399de5"] ;
661 -> 663 ;
664 [label="gini = 0.0\nsamples = 8\nvalue = [15, 0]\nclass = C", fillcolor="#e58139"] ;
660 -> 664 ;
665 [label="SubdomainLevel <= -0.12\ngini = 0.42\nsamples = 100\nvalue = [44, 103]\nclass = L", fillcolor="#8ec7f0"] ;
621 -> 665 ;
666 [label="AbnormalExtFormActionR <= -0.56\ngini = 0.15\nsamples = 31\nvalue = [4, 44]\nclass = L", fillcolor="#4ba6e7"] ;
665 -> 666 ;
667 [label="gini = 0.0\nsamples = 1\nvalue = [1, 0]\nclass = C", fillcolor="#e58139"] ;
666 -> 667 ;
668 [label="NumDots <= -0.71\ngini = 0.12\nsamples = 30\nvalue = [3, 44]\nclass = L", fillcolor="#46a4e7"] ;
666 -> 668 ;
669 [label="PctExtNullSelfRedirectHyperlinksRT <= -0.36\ngini = 0.24\nsamples = 17\nvalue = [3, 19]\nclass = L", fillcolor="#58ace9"] ;
668 -> 669 ;
670 [label="gini = 0.0\nsamples = 10\nvalue = [0, 14]\nclass = L", fillcolor="#399de5"] ;
669 -> 670 ;
671 [label="PctExtResourceUrlsRT <= -0.4\ngini = 0.47\nsamples = 7\nvalue = [3, 5]\nclass = L", fillcolor="#b0d8f5"] ;
669 -> 671 ;
672 [label="gini = 0.0\nsamples = 1\nvalue = [1, 0]\nclass = C", fillcolor="#e58139"] ;
671 -> 672 ;
673 [label="PathLevel <= -0.42\ngini = 0.41\nsamples = 6\nvalue = [2, 5]\nclass = L", fillcolor="#88c4ef"] ;
671 -> 673 ;
674 [label="gini = 0.0\nsamples = 2\nvalue = [0, 2]\nclass = L", fillcolor="#399de5"] ;
673 -> 674 ;
675 [label="NumDash <= -0.43\ngini = 0.48\nsamples = 4\nvalue = [2, 3]\nclass = L", fillcolor="#bddef6"] ;
673 -> 675 ;
676 [label="gini = 0.0\nsamples = 2\nvalue = [0, 2]\nclass = L", fillcolor="#399de5"] ;
675 -> 676 ;
677 [label="UrlLengthRT <= 0.58\ngini = 0.44\nsamples = 2\nvalue = [2, 1]\nclass = C", fillcolor="#f2c09c"] ;
675 -> 677 ;
678 [label="gini = 0.0\nsamples = 1\nvalue = [2, 0]\nclass = C", fillcolor="#e58139"] ;
677 -> 678 ;
679 [label="gini = 0.0\nsamples = 1\nvalue = [0, 1]\nclass = L", fillcolor="#399de5"] ;
677 -> 679 ;
680 [label="gini = 0.0\nsamples = 13\nvalue = [0, 25]\nclass = L", fillcolor="#399de5"] ;
668 -> 680 ;
681 [label="PctExtNullSelfRedirectHyperlinksRT <= -0.92\ngini = 0.48\nsamples = 69\nvalue = [40, 59]\nclass = L", fillcolor="#bfdff7"] ;
665 -> 681 ;
682 [label="gini = 0.0\nsamples = 25\nvalue = [0, 36]\nclass = L", fillcolor="#399de5"] ;
681 -> 682 ;
683 [label="RandomString <= -0.04\ngini = 0.46\nsamples = 44\nvalue = [40, 23]\nclass = C", fillcolor="#f4c9ab"] ;
681 -> 683 ;
684 [label="PctExtHyperlinks <= -0.68\ngini = 0.5\nsamples = 24\nvalue = [20, 18]\nclass = C", fillcolor="#fcf2eb"] ;
683 -> 684 ;
685 [label="PathLength <= -0.44\ngini = 0.24\nsamples = 14\nvalue = [3, 18]\nclass = L", fillcolor="#5aade9"] ;
684 -> 685 ;
686 [label="gini = 0.0\nsamples = 11\nvalue = [0, 14]\nclass = L", fillcolor="#399de5"] ;
685 -> 686 ;
687 [label="MissingTitle <= 2.58\ngini = 0.49\nsamples = 3\nvalue = [3, 4]\nclass = L", fillcolor="#cee6f8"] ;
685 -> 687 ;
688 [label="gini = 0.0\nsamples = 2\nvalue = [0, 4]\nclass = L", fillcolor="#399de5"] ;
687 -> 688 ;
689 [label="gini = 0.0\nsamples = 1\nvalue = [3, 0]\nclass = C", fillcolor="#e58139"] ;
687 -> 689 ;
690 [label="gini = 0.0\nsamples = 10\nvalue = [17, 0]\nclass = C", fillcolor="#e58139"] ;
684 -> 690 ;
691 [label="InsecureForms <= -0.96\ngini = 0.32\nsamples = 20\nvalue = [20, 5]\nclass = C", fillcolor="#eca06a"] ;
683 -> 691 ;
692 [label="gini = 0.0\nsamples = 7\nvalue = [9, 0]\nclass = C", fillcolor="#e58139"] ;
691 -> 692 ;
693 [label="PctExtResourceUrls <= -0.64\ngini = 0.43\nsamples = 13\nvalue = [11, 5]\nclass = C", fillcolor="#f1ba93"] ;
691 -> 693 ;
694 [label="PathLength <= 0.17\ngini = 0.22\nsamples = 6\nvalue = [7, 1]\nclass = C", fillcolor="#e99355"] ;
693 -> 694 ;
695 [label="gini = 0.0\nsamples = 5\nvalue = [7, 0]\nclass = C", fillcolor="#e58139"] ;
694 -> 695 ;
696 [label="gini = 0.0\nsamples = 1\nvalue = [0, 1]\nclass = L", fillcolor="#399de5"] ;
694 -> 696 ;
697 [label="PctExtResourceUrls <= -0.56\ngini = 0.5\nsamples = 7\nvalue = [4, 4]\nclass = C", fillcolor="#ffffff"] ;
693 -> 697 ;
698 [label="gini = 0.0\nsamples = 2\nvalue = [0, 2]\nclass = L", fillcolor="#399de5"] ;
697 -> 698 ;
699 [label="HostnameLength <= 0.2\ngini = 0.44\nsamples = 5\nvalue = [4, 2]\nclass = C", fillcolor="#f2c09c"] ;
697 -> 699 ;
700 [label="gini = 0.0\nsamples = 2\nvalue = [3, 0]\nclass = C", fillcolor="#e58139"] ;
699 -> 700 ;
701 [label="UrlLength <= -0.74\ngini = 0.44\nsamples = 3\nvalue = [1, 2]\nclass = L", fillcolor="#9ccef2"] ;
699 -> 701 ;
702 [label="gini = 0.0\nsamples = 1\nvalue = [1, 0]\nclass = C", fillcolor="#e58139"] ;
701 -> 702 ;
703 [label="gini = 0.0\nsamples = 2\nvalue = [0, 2]\nclass = L", fillcolor="#399de5"] ;
701 -> 703 ;
704 [label="PathLength <= -1.32\ngini = 0.03\nsamples = 45\nvalue = [1, 69]\nclass = L", fillcolor="#3c9ee5"] ;
596 -> 704 ;
705 [label="gini = 0.0\nsamples = 1\nvalue = [1, 0]\nclass = C", fillcolor="#e58139"] ;
704 -> 705 ;
706 [label="gini = 0.0\nsamples = 44\nvalue = [0, 69]\nclass = L", fillcolor="#399de5"] ;
704 -> 706 ;
707 [label="PctExtNullSelfRedirectHyperlinksRT <= -0.92\ngini = 0.13\nsamples = 116\nvalue = [168, 13]\nclass = C", fillcolor="#e78b48"] ;
595 -> 707 ;
708 [label="NumNumericChars <= 0.61\ngini = 0.32\nsamples = 7\nvalue = [2, 8]\nclass = L", fillcolor="#6ab6ec"] ;
707 -> 708 ;
709 [label="gini = 0.0\nsamples = 5\nvalue = [0, 8]\nclass = L", fillcolor="#399de5"] ;
708 -> 709 ;
710 [label="gini = 0.0\nsamples = 2\nvalue = [2, 0]\nclass = C", fillcolor="#e58139"] ;
708 -> 710 ;
711 [label="NumDots <= 2.33\ngini = 0.06\nsamples = 109\nvalue = [166, 5]\nclass = C", fillcolor="#e6853f"] ;
707 -> 711 ;
712 [label="NumPercent <= 3.18\ngini = 0.05\nsamples = 108\nvalue = [166, 4]\nclass = C", fillcolor="#e6843e"] ;
711 -> 712 ;
713 [label="RandomString <= -0.04\ngini = 0.02\nsamples = 107\nvalue = [166, 2]\nclass = C", fillcolor="#e5833b"] ;
712 -> 713 ;
714 [label="gini = 0.0\nsamples = 30\nvalue = [47, 0]\nclass = C", fillcolor="#e58139"] ;
713 -> 714 ;
715 [label="HostnameLength <= -0.4\ngini = 0.03\nsamples = 77\nvalue = [119, 2]\nclass = C", fillcolor="#e5833c"] ;
713 -> 715 ;
716 [label="NumSensitiveWords <= 2.45\ngini = 0.07\nsamples = 38\nvalue = [53, 2]\nclass = C", fillcolor="#e68640"] ;
715 -> 716 ;
717 [label="gini = 0.0\nsamples = 37\nvalue = [53, 0]\nclass = C", fillcolor="#e58139"] ;
716 -> 717 ;
718 [label="gini = 0.0\nsamples = 1\nvalue = [0, 2]\nclass = L", fillcolor="#399de5"] ;
716 -> 718 ;
719 [label="gini = 0.0\nsamples = 39\nvalue = [66, 0]\nclass = C", fillcolor="#e58139"] ;
715 -> 719 ;
720 [label="gini = 0.0\nsamples = 1\nvalue = [0, 2]\nclass = L", fillcolor="#399de5"] ;
712 -> 720 ;
721 [label="gini = 0.0\nsamples = 1\nvalue = [0, 1]\nclass = L", fillcolor="#399de5"] ;
711 -> 721 ;
722 [label="PctExtHyperlinks <= 1.9\ngini = 0.04\nsamples = 55\nvalue = [2, 91]\nclass = L", fillcolor="#3d9fe6"] ;
594 -> 722 ;
723 [label="gini = 0.0\nsamples = 54\nvalue = [0, 91]\nclass = L", fillcolor="#399de5"] ;
722 -> 723 ;
724 [label="gini = 0.0\nsamples = 1\nvalue = [2, 0]\nclass = C", fillcolor="#e58139"] ;
722 -> 724 ;
725 [label="HostnameLength <= 2.03\ngini = 0.13\nsamples = 157\nvalue = [230, 17]\nclass = C", fillcolor="#e78a48"] ;
593 -> 725 ;
726 [label="UrlLength <= 3.88\ngini = 0.11\nsamples = 156\nvalue = [230, 15]\nclass = C", fillcolor="#e78946"] ;
725 -> 726 ;
727 [label="PctExtNullSelfRedirectHyperlinksRT <= -0.92\ngini = 0.11\nsamples = 154\nvalue = [229, 14]\nclass = C", fillcolor="#e78945"] ;
726 -> 727 ;
728 [label="gini = 0.0\nsamples = 2\nvalue = [0, 4]\nclass = L", fillcolor="#399de5"] ;
727 -> 728 ;
729 [label="NumNumericChars <= 3.68\ngini = 0.08\nsamples = 152\nvalue = [229, 10]\nclass = C", fillcolor="#e68742"] ;
727 -> 729 ;
730 [label="PathLevel <= -0.42\ngini = 0.07\nsamples = 151\nvalue = [229, 9]\nclass = C", fillcolor="#e68641"] ;
729 -> 730 ;
731 [label="NumDashInHostname <= 0.66\ngini = 0.01\nsamples = 112\nvalue = [172, 1]\nclass = C", fillcolor="#e5823a"] ;
730 -> 731 ;
732 [label="gini = 0.0\nsamples = 102\nvalue = [160, 0]\nclass = C", fillcolor="#e58139"] ;
731 -> 732 ;
733 [label="PctExtHyperlinks <= -0.69\ngini = 0.14\nsamples = 10\nvalue = [12, 1]\nclass = C", fillcolor="#e78c49"] ;
731 -> 733 ;
734 [label="gini = 0.0\nsamples = 1\nvalue = [0, 1]\nclass = L", fillcolor="#399de5"] ;
733 -> 734 ;
735 [label="gini = 0.0\nsamples = 9\nvalue = [12, 0]\nclass = C", fillcolor="#e58139"] ;
733 -> 735 ;
736 [label="NumNumericChars <= -0.03\ngini = 0.22\nsamples = 39\nvalue = [57, 8]\nclass = C", fillcolor="#e99355"] ;
730 -> 736 ;
737 [label="PctExtResourceUrls <= -0.67\ngini = 0.44\nsamples = 14\nvalue = [17, 8]\nclass = C", fillcolor="#f1bc96"] ;
736 -> 737 ;
738 [label="gini = 0.0\nsamples = 8\nvalue = [15, 0]\nclass = C", fillcolor="#e58139"] ;
737 -> 738 ;
739 [label="DomainInPaths <= 0.14\ngini = 0.32\nsamples = 6\nvalue = [2, 8]\nclass = L", fillcolor="#6ab6ec"] ;
737 -> 739 ;
740 [label="gini = 0.0\nsamples = 4\nvalue = [0, 8]\nclass = L", fillcolor="#399de5"] ;
739 -> 740 ;
741 [label="gini = 0.0\nsamples = 2\nvalue = [2, 0]\nclass = C", fillcolor="#e58139"] ;
739 -> 741 ;
742 [label="gini = 0.0\nsamples = 25\nvalue = [40, 0]\nclass = C", fillcolor="#e58139"] ;
736 -> 742 ;
743 [label="gini = 0.0\nsamples = 1\nvalue = [0, 1]\nclass = L", fillcolor="#399de5"] ;
729 -> 743 ;
744 [label="PctExtHyperlinks <= -0.55\ngini = 0.5\nsamples = 2\nvalue = [1, 1]\nclass = C", fillcolor="#ffffff"] ;
726 -> 744 ;
745 [label="gini = 0.0\nsamples = 1\nvalue = [0, 1]\nclass = L", fillcolor="#399de5"] ;
744 -> 745 ;
746 [label="gini = 0.0\nsamples = 1\nvalue = [1, 0]\nclass = C", fillcolor="#e58139"] ;
744 -> 746 ;
747 [label="gini = 0.0\nsamples = 1\nvalue = [0, 2]\nclass = L", fillcolor="#399de5"] ;
725 -> 747 ;
748 [label="NumNumericChars <= -0.34\ngini = 0.11\nsamples = 1056\nvalue = [96, 1594]\nclass = L", fillcolor="#45a3e7"] ;
0 -> 748 [labeldistance=2.5, labelangle=-45, headlabel="False"] ;
749 [label="NumDash <= 1.39\ngini = 0.03\nsamples = 737\nvalue = [18, 1170]\nclass = L", fillcolor="#3c9fe5"] ;
748 -> 749 ;
750 [label="InsecureForms <= -0.96\ngini = 0.02\nsamples = 734\nvalue = [14, 1169]\nclass = L", fillcolor="#3b9ee5"] ;
749 -> 750 ;
751 [label="IframeOrFrame <= 0.34\ngini = 0.21\nsamples = 41\nvalue = [8, 60]\nclass = L", fillcolor="#53aae8"] ;
750 -> 751 ;
752 [label="NumNumericChars <= -0.56\ngini = 0.03\nsamples = 34\nvalue = [1, 58]\nclass = L", fillcolor="#3c9fe5"] ;
751 -> 752 ;
753 [label="ExtFavicon <= 0.91\ngini = 0.04\nsamples = 27\nvalue = [1, 45]\nclass = L", fillcolor="#3d9fe6"] ;
752 -> 753 ;
754 [label="gini = 0.0\nsamples = 24\nvalue = [0, 42]\nclass = L", fillcolor="#399de5"] ;
753 -> 754 ;
755 [label="PathLength <= -1.18\ngini = 0.38\nsamples = 3\nvalue = [1, 3]\nclass = L", fillcolor="#7bbeee"] ;
753 -> 755 ;
756 [label="gini = 0.0\nsamples = 1\nvalue = [1, 0]\nclass = C", fillcolor="#e58139"] ;
755 -> 756 ;
757 [label="gini = 0.0\nsamples = 2\nvalue = [0, 3]\nclass = L", fillcolor="#399de5"] ;
755 -> 757 ;
758 [label="gini = 0.0\nsamples = 7\nvalue = [0, 13]\nclass = L", fillcolor="#399de5"] ;
752 -> 758 ;
759 [label="PctExtResourceUrls <= 0.49\ngini = 0.35\nsamples = 7\nvalue = [7, 2]\nclass = C", fillcolor="#eca572"] ;
751 -> 759 ;
760 [label="gini = 0.0\nsamples = 3\nvalue = [4, 0]\nclass = C", fillcolor="#e58139"] ;
759 -> 760 ;
761 [label="DomainInPaths <= 0.14\ngini = 0.48\nsamples = 4\nvalue = [3, 2]\nclass = C", fillcolor="#f6d5bd"] ;
759 -> 761 ;
762 [label="UrlLengthRT <= -0.03\ngini = 0.38\nsamples = 3\nvalue = [3, 1]\nclass = C", fillcolor="#eeab7b"] ;
761 -> 762 ;
763 [label="gini = 0.0\nsamples = 1\nvalue = [0, 1]\nclass = L", fillcolor="#399de5"] ;
762 -> 763 ;
764 [label="gini = 0.0\nsamples = 2\nvalue = [3, 0]\nclass = C", fillcolor="#e58139"] ;
762 -> 764 ;
765 [label="gini = 0.0\nsamples = 1\nvalue = [0, 1]\nclass = L", fillcolor="#399de5"] ;
761 -> 765 ;
766 [label="SubdomainLevel <= -0.12\ngini = 0.01\nsamples = 693\nvalue = [6, 1109]\nclass = L", fillcolor="#3a9ee5"] ;
750 -> 766 ;
767 [label="ExtFavicon <= 0.91\ngini = 0.01\nsamples = 381\nvalue = [2, 649]\nclass = L", fillcolor="#3a9de5"] ;
766 -> 767 ;
768 [label="gini = 0.0\nsamples = 303\nvalue = [0, 524]\nclass = L", fillcolor="#399de5"] ;
767 -> 768 ;
769 [label="NumDash <= -0.43\ngini = 0.03\nsamples = 78\nvalue = [2, 125]\nclass = L", fillcolor="#3c9fe5"] ;
767 -> 769 ;
770 [label="gini = 0.0\nsamples = 51\nvalue = [0, 84]\nclass = L", fillcolor="#399de5"] ;
769 -> 770 ;
771 [label="PctExtResourceUrlsRT <= -0.96\ngini = 0.09\nsamples = 27\nvalue = [2, 41]\nclass = L", fillcolor="#43a2e6"] ;
769 -> 771 ;
772 [label="NumDots <= -0.71\ngini = 0.11\nsamples = 20\nvalue = [2, 31]\nclass = L", fillcolor="#46a3e7"] ;
771 -> 772 ;
773 [label="gini = 0.0\nsamples = 1\nvalue = [2, 0]\nclass = C", fillcolor="#e58139"] ;
772 -> 773 ;
774 [label="gini = 0.0\nsamples = 19\nvalue = [0, 31]\nclass = L", fillcolor="#399de5"] ;
772 -> 774 ;
775 [label="gini = 0.0\nsamples = 7\nvalue = [0, 10]\nclass = L", fillcolor="#399de5"] ;
771 -> 775 ;
776 [label="ExtMetaScriptLinkRT <= 0.43\ngini = 0.02\nsamples = 312\nvalue = [4, 460]\nclass = L", fillcolor="#3b9ee5"] ;
766 -> 776 ;
777 [label="PctNullSelfRedirectHyperlinks <= -0.42\ngini = 0.02\nsamples = 221\nvalue = [4, 329]\nclass = L", fillcolor="#3b9ee5"] ;
776 -> 777 ;
778 [label="gini = 0.0\nsamples = 175\nvalue = [0, 265]\nclass = L", fillcolor="#399de5"] ;
777 -> 778 ;
779 [label="PathLevel <= -0.96\ngini = 0.11\nsamples = 46\nvalue = [4, 64]\nclass = L", fillcolor="#45a3e7"] ;
777 -> 779 ;
780 [label="ExtFavicon <= 0.91\ngini = 0.44\nsamples = 5\nvalue = [2, 4]\nclass = L", fillcolor="#9ccef2"] ;
779 -> 780 ;
781 [label="PctExtResourceUrls <= 1.55\ngini = 0.5\nsamples = 2\nvalue = [1, 1]\nclass = C", fillcolor="#ffffff"] ;
780 -> 781 ;
782 [label="gini = 0.0\nsamples = 1\nvalue = [1, 0]\nclass = C", fillcolor="#e58139"] ;
781 -> 782 ;
783 [label="gini = 0.0\nsamples = 1\nvalue = [0, 1]\nclass = L", fillcolor="#399de5"] ;
781 -> 783 ;
784 [label="RelativeFormAction <= 0.58\ngini = 0.38\nsamples = 3\nvalue = [1, 3]\nclass = L", fillcolor="#7bbeee"] ;
780 -> 784 ;
785 [label="gini = 0.0\nsamples = 2\nvalue = [0, 3]\nclass = L", fillcolor="#399de5"] ;
784 -> 785 ;
786 [label="gini = 0.0\nsamples = 1\nvalue = [1, 0]\nclass = C", fillcolor="#e58139"] ;
784 -> 786 ;
787 [label="UrlLength <= -0.54\ngini = 0.06\nsamples = 41\nvalue = [2, 60]\nclass = L", fillcolor="#40a0e6"] ;
779 -> 787 ;
788 [label="SubmitInfoToEmail <= 1.09\ngini = 0.17\nsamples = 14\nvalue = [2, 20]\nclass = L", fillcolor="#4da7e8"] ;
787 -> 788 ;
789 [label="PctExtHyperlinks <= -0.57\ngini = 0.09\nsamples = 13\nvalue = [1, 20]\nclass = L", fillcolor="#43a2e6"] ;
788 -> 789 ;
790 [label="PctExtNullSelfRedirectHyperlinksRT <= -0.36\ngini = 0.22\nsamples = 5\nvalue = [1, 7]\nclass = L", fillcolor="#55abe9"] ;
789 -> 790 ;
791 [label="gini = 0.0\nsamples = 4\nvalue = [0, 7]\nclass = L", fillcolor="#399de5"] ;
790 -> 791 ;
792 [label="gini = 0.0\nsamples = 1\nvalue = [1, 0]\nclass = C", fillcolor="#e58139"] ;
790 -> 792 ;
793 [label="gini = 0.0\nsamples = 8\nvalue = [0, 13]\nclass = L", fillcolor="#399de5"] ;
789 -> 793 ;
794 [label="gini = 0.0\nsamples = 1\nvalue = [1, 0]\nclass = C", fillcolor="#e58139"] ;
788 -> 794 ;
795 [label="gini = 0.0\nsamples = 27\nvalue = [0, 40]\nclass = L", fillcolor="#399de5"] ;
787 -> 795 ;
796 [label="gini = 0.0\nsamples = 91\nvalue = [0, 131]\nclass = L", fillcolor="#399de5"] ;
776 -> 796 ;
797 [label="SubdomainLevel <= 1.2\ngini = 0.32\nsamples = 3\nvalue = [4, 1]\nclass = C", fillcolor="#eca06a"] ;
749 -> 797 ;
798 [label="gini = 0.0\nsamples = 2\nvalue = [4, 0]\nclass = C", fillcolor="#e58139"] ;
797 -> 798 ;
799 [label="gini = 0.0\nsamples = 1\nvalue = [0, 1]\nclass = L", fillcolor="#399de5"] ;
797 -> 799 ;
800 [label="FakeLinkInStatusBar <= 6.61\ngini = 0.26\nsamples = 319\nvalue = [78, 424]\nclass = L", fillcolor="#5dafea"] ;
748 -> 800 ;
801 [label="PathLevel <= -0.96\ngini = 0.26\nsamples = 318\nvalue = [76, 424]\nclass = L", fillcolor="#5cafea"] ;
800 -> 801 ;
802 [label="NumAmpersand <= 1.14\ngini = 0.43\nsamples = 17\nvalue = [22, 10]\nclass = C", fillcolor="#f1ba93"] ;
801 -> 802 ;
803 [label="IframeOrFrame <= 0.34\ngini = 0.5\nsamples = 12\nvalue = [12, 10]\nclass = C", fillcolor="#fbeade"] ;
802 -> 803 ;
804 [label="RelativeFormAction <= 0.58\ngini = 0.4\nsamples = 8\nvalue = [3, 8]\nclass = L", fillcolor="#83c2ef"] ;
803 -> 804 ;
805 [label="UrlLength <= -0.25\ngini = 0.42\nsamples = 7\nvalue = [3, 7]\nclass = L", fillcolor="#8ec7f0"] ;
804 -> 805 ;
806 [label="QueryLength <= -0.14\ngini = 0.5\nsamples = 5\nvalue = [3, 3]\nclass = C", fillcolor="#ffffff"] ;
805 -> 806 ;
807 [label="NumDash <= -0.43\ngini = 0.38\nsamples = 4\nvalue = [1, 3]\nclass = L", fillcolor="#7bbeee"] ;
806 -> 807 ;
808 [label="gini = 0.0\nsamples = 3\nvalue = [0, 3]\nclass = L", fillcolor="#399de5"] ;
807 -> 808 ;
809 [label="gini = 0.0\nsamples = 1\nvalue = [1, 0]\nclass = C", fillcolor="#e58139"] ;
807 -> 809 ;
810 [label="gini = 0.0\nsamples = 1\nvalue = [2, 0]\nclass = C", fillcolor="#e58139"] ;
806 -> 810 ;
811 [label="gini = 0.0\nsamples = 2\nvalue = [0, 4]\nclass = L", fillcolor="#399de5"] ;
805 -> 811 ;
812 [label="gini = 0.0\nsamples = 1\nvalue = [0, 1]\nclass = L", fillcolor="#399de5"] ;
804 -> 812 ;
813 [label="PathLength <= -0.97\ngini = 0.3\nsamples = 4\nvalue = [9, 2]\nclass = C", fillcolor="#eb9d65"] ;
803 -> 813 ;
814 [label="gini = 0.0\nsamples = 1\nvalue = [0, 2]\nclass = L", fillcolor="#399de5"] ;
813 -> 814 ;
815 [label="gini = 0.0\nsamples = 3\nvalue = [9, 0]\nclass = C", fillcolor="#e58139"] ;
813 -> 815 ;
816 [label="gini = 0.0\nsamples = 5\nvalue = [10, 0]\nclass = C", fillcolor="#e58139"] ;
802 -> 816 ;
817 [label="AbnormalExtFormActionR <= -0.56\ngini = 0.2\nsamples = 301\nvalue = [54, 414]\nclass = L", fillcolor="#53aae8"] ;
801 -> 817 ;
818 [label="PathLevel <= -0.42\ngini = 0.37\nsamples = 44\nvalue = [18, 56]\nclass = L", fillcolor="#79bced"] ;
817 -> 818 ;
819 [label="ExtFormAction <= 1.3\ngini = 0.49\nsamples = 8\nvalue = [7, 5]\nclass = C", fillcolor="#f8dbc6"] ;
818 -> 819 ;
820 [label="PctExtNullSelfRedirectHyperlinksRT <= -0.36\ngini = 0.28\nsamples = 4\nvalue = [1, 5]\nclass = L", fillcolor="#61b1ea"] ;
819 -> 820 ;
821 [label="gini = 0.0\nsamples = 3\nvalue = [0, 5]\nclass = L", fillcolor="#399de5"] ;
820 -> 821 ;
822 [label="gini = 0.0\nsamples = 1\nvalue = [1, 0]\nclass = C", fillcolor="#e58139"] ;
820 -> 822 ;
823 [label="gini = 0.0\nsamples = 4\nvalue = [6, 0]\nclass = C", fillcolor="#e58139"] ;
819 -> 823 ;
824 [label="PctExtHyperlinks <= 2.21\ngini = 0.29\nsamples = 36\nvalue = [11, 51]\nclass = L", fillcolor="#64b2eb"] ;
818 -> 824 ;
825 [label="HostnameLength <= -0.28\ngini = 0.39\nsamples = 25\nvalue = [11, 30]\nclass = L", fillcolor="#82c1ef"] ;
824 -> 825 ;
826 [label="NumQueryComponents <= 0.03\ngini = 0.46\nsamples = 7\nvalue = [7, 4]\nclass = C", fillcolor="#f4c9aa"] ;
825 -> 826 ;
827 [label="NumNumericChars <= 0.61\ngini = 0.22\nsamples = 4\nvalue = [7, 1]\nclass = C", fillcolor="#e99355"] ;
826 -> 827 ;
828 [label="gini = 0.0\nsamples = 3\nvalue = [7, 0]\nclass = C", fillcolor="#e58139"] ;
827 -> 828 ;
829 [label="gini = 0.0\nsamples = 1\nvalue = [0, 1]\nclass = L", fillcolor="#399de5"] ;
827 -> 829 ;
830 [label="gini = 0.0\nsamples = 3\nvalue = [0, 3]\nclass = L", fillcolor="#399de5"] ;
826 -> 830 ;
831 [label="NumDash <= 0.07\ngini = 0.23\nsamples = 18\nvalue = [4, 26]\nclass = L", fillcolor="#57ace9"] ;
825 -> 831 ;
832 [label="gini = 0.0\nsamples = 13\nvalue = [0, 23]\nclass = L", fillcolor="#399de5"] ;
831 -> 832 ;
833 [label="UrlLength <= 0.4\ngini = 0.49\nsamples = 5\nvalue = [4, 3]\nclass = C", fillcolor="#f8e0ce"] ;
831 -> 833 ;
834 [label="gini = 0.0\nsamples = 2\nvalue = [3, 0]\nclass = C", fillcolor="#e58139"] ;
833 -> 834 ;
835 [label="NumNumericChars <= 0.19\ngini = 0.38\nsamples = 3\nvalue = [1, 3]\nclass = L", fillcolor="#7bbeee"] ;
833 -> 835 ;
836 [label="gini = 0.0\nsamples = 2\nvalue = [0, 3]\nclass = L", fillcolor="#399de5"] ;
835 -> 836 ;
837 [label="gini = 0.0\nsamples = 1\nvalue = [1, 0]\nclass = C", fillcolor="#e58139"] ;
835 -> 837 ;
838 [label="gini = 0.0\nsamples = 11\nvalue = [0, 21]\nclass = L", fillcolor="#399de5"] ;
824 -> 838 ;
839 [label="NumNumericChars <= 0.29\ngini = 0.17\nsamples = 257\nvalue = [36, 358]\nclass = L", fillcolor="#4da7e8"] ;
817 -> 839 ;
840 [label="PctExtHyperlinks <= 1.75\ngini = 0.3\nsamples = 78\nvalue = [21, 94]\nclass = L", fillcolor="#65b3eb"] ;
839 -> 840 ;
841 [label="PathLevel <= 0.66\ngini = 0.45\nsamples = 25\nvalue = [14, 26]\nclass = L", fillcolor="#a4d2f3"] ;
840 -> 841 ;
842 [label="PctExtNullSelfRedirectHyperlinksRT <= -0.92\ngini = 0.49\nsamples = 15\nvalue = [14, 10]\nclass = C", fillcolor="#f8dbc6"] ;
841 -> 842 ;
843 [label="RandomString <= -0.04\ngini = 0.5\nsamples = 6\nvalue = [5, 6]\nclass = L", fillcolor="#deeffb"] ;
842 -> 843 ;
844 [label="gini = 0.0\nsamples = 1\nvalue = [0, 3]\nclass = L", fillcolor="#399de5"] ;
843 -> 844 ;
845 [label="NumDots <= 0.05\ngini = 0.47\nsamples = 5\nvalue = [5, 3]\nclass = C", fillcolor="#f5cdb0"] ;
843 -> 845 ;
846 [label="gini = 0.0\nsamples = 4\nvalue = [5, 0]\nclass = C", fillcolor="#e58139"] ;
845 -> 846 ;
847 [label="gini = 0.0\nsamples = 1\nvalue = [0, 3]\nclass = L", fillcolor="#399de5"] ;
845 -> 847 ;
848 [label="UrlLengthRT <= 0.58\ngini = 0.43\nsamples = 9\nvalue = [9, 4]\nclass = C", fillcolor="#f1b991"] ;
842 -> 848 ;
849 [label="PctExtResourceUrlsRT <= -0.96\ngini = 0.18\nsamples = 6\nvalue = [9, 1]\nclass = C", fillcolor="#e88f4f"] ;
848 -> 849 ;
850 [label="PctExtHyperlinks <= -0.58\ngini = 0.32\nsamples = 3\nvalue = [4, 1]\nclass = C", fillcolor="#eca06a"] ;
849 -> 850 ;
851 [label="gini = 0.0\nsamples = 2\nvalue = [4, 0]\nclass = C", fillcolor="#e58139"] ;
850 -> 851 ;
852 [label="gini = 0.0\nsamples = 1\nvalue = [0, 1]\nclass = L", fillcolor="#399de5"] ;
850 -> 852 ;
853 [label="gini = 0.0\nsamples = 3\nvalue = [5, 0]\nclass = C", fillcolor="#e58139"] ;
849 -> 853 ;
854 [label="gini = 0.0\nsamples = 3\nvalue = [0, 3]\nclass = L", fillcolor="#399de5"] ;
848 -> 854 ;
855 [label="gini = 0.0\nsamples = 10\nvalue = [0, 16]\nclass = L", fillcolor="#399de5"] ;
841 -> 855 ;
856 [label="InsecureForms <= -0.96\ngini = 0.17\nsamples = 53\nvalue = [7, 68]\nclass = L", fillcolor="#4da7e8"] ;
840 -> 856 ;
857 [label="gini = 0.0\nsamples = 5\nvalue = [6, 0]\nclass = C", fillcolor="#e58139"] ;
856 -> 857 ;
858 [label="NumQueryComponents <= 0.79\ngini = 0.03\nsamples = 48\nvalue = [1, 68]\nclass = L", fillcolor="#3c9ee5"] ;
856 -> 858 ;
859 [label="gini = 0.0\nsamples = 47\nvalue = [0, 68]\nclass = L", fillcolor="#399de5"] ;
858 -> 859 ;
860 [label="gini = 0.0\nsamples = 1\nvalue = [1, 0]\nclass = C", fillcolor="#e58139"] ;
858 -> 860 ;
861 [label="MissingTitle <= 2.58\ngini = 0.1\nsamples = 179\nvalue = [15, 264]\nclass = L", fillcolor="#44a3e6"] ;
839 -> 861 ;
862 [label="InsecureForms <= -0.96\ngini = 0.08\nsamples = 175\nvalue = [11, 263]\nclass = L", fillcolor="#41a1e6"] ;
861 -> 862 ;
863 [label="gini = 0.0\nsamples = 6\nvalue = [9, 0]\nclass = C", fillcolor="#e58139"] ;
862 -> 863 ;
864 [label="IpAddress <= 3.71\ngini = 0.01\nsamples = 169\nvalue = [2, 263]\nclass = L", fillcolor="#3b9ee5"] ;
862 -> 864 ;
865 [label="RelativeFormAction <= 0.58\ngini = 0.03\nsamples = 84\nvalue = [2, 124]\nclass = L", fillcolor="#3c9fe5"] ;
864 -> 865 ;
866 [label="gini = 0.0\nsamples = 80\nvalue = [0, 121]\nclass = L", fillcolor="#399de5"] ;
865 -> 866 ;
867 [label="NumQueryComponents <= 1.92\ngini = 0.48\nsamples = 4\nvalue = [2, 3]\nclass = L", fillcolor="#bddef6"] ;
865 -> 867 ;
868 [label="gini = 0.0\nsamples = 3\nvalue = [0, 3]\nclass = L", fillcolor="#399de5"] ;
867 -> 868 ;
